{"learner":{"attributes":{"scikit_learn":"{\"_estimator_type\": \"regressor\"}"},"feature_names":["m_o","m_h","m_l","m_c","m_t","b_o","b_h","b_l","b_c","a_o","a_h","a_l","a_c","spread","spread_rolling_mean_1min","spread_rolling_mean_5min","spread_rolling_std_5min","spread_percentile_5min","ticks_30s","ticks_1min","time_since_last_update","inactivity_flag_5s","m_log_c","m_log_return","m_log_return_sq","m_realized_vol_1min","m_realized_vol_5min","m_realized_vol_15min","m_max_abs_return_1min","m_volatility_ratio_1min_15min","hour_of_day","day_of_week","is_high_liquidity_hour","high_spread_flag","vol_regime_flag"],"feature_types":["float","float","float","float","float","float","float","float","float","float","float","float","float","float","float","float","float","float","float","float","float","int","float","float","float","float","float","float","float","float","int","int","int","int","int"],"gradient_booster":{"model":{"gbtree_model_param":{"num_parallel_tree":"1","num_trees":"100"},"iteration_indptr":[0,1,2,3,4,5,6,7,8,9,10,11,12,13,14,15,16,17,18,19,20,21,22,23,24,25,26,27,28,29,30,31,32,33,34,35,36,37,38,39,40,41,42,43,44,45,46,47,48,49,50,51,52,53,54,55,56,57,58,59,60,61,62,63,64,65,66,67,68,69,70,71,72,73,74,75,76,77,78,79,80,81,82,83,84,85,86,87,88,89,90,91,92,93,94,95,96,97,98,99,100],"tree_info":[0,0,0,0,0,0,0,0,0,0,0,0,0,0,0,0,0,0,0,0,0,0,0,0,0,0,0,0,0,0,0,0,0,0,0,0,0,0,0,0,0,0,0,0,0,0,0,0,0,0,0,0,0,0,0,0,0,0,0,0,0,0,0,0,0,0,0,0,0,0,0,0,0,0,0,0,0,0,0,0,0,0,0,0,0,0,0,0,0,0,0,0,0,0,0,0,0,0,0,0],"trees":[{"base_weights":[-1.0836194E-12,-5.381408E-5,1.1190733E-4,-8.33161E-5,-7.0180654E-6,7.525571E-5,2.4161005E-4,-9.162661E-5,-6.111781E-5,-2.646757E-5,9.106899E-6,5.117417E-5,1.1269403E-4,2.0329368E-4,3.6931387E-4,-9.21266E-5,-3.7483733E-5,-6.73537E-5,-4.3434386E-5,-3.7733098E-5,-1.4203088E-5,-2.0574455E-6,2.0586018E-5,4.0299397E-5,7.501869E-5,8.956626E-5,1.3807396E-4,1.6465723E-4,2.387947E-4,3.0189304E-4,4.7283512E-4,-8.0772676E-5,-9.287443E-5,-1.4104546E-5,-5.5491502E-5,-7.324037E-5,-6.132381E-5,-5.06242E-5,-3.6153273E-5,-4.7968315E-5,-3.192743E-5,-1.9445195E-5,-5.474453E-6,-1.02686745E-5,5.306461E-6,1.619971E-5,3.5948215E-5,2.2311891E-5,4.8298458E-5,6.382729E-5,9.0961614E-5,6.392378E-5,1.0300156E-4,1.2724422E-4,1.6939019E-4,1.1273301E-4,1.8142496E-4,2.1388647E-4,2.7417802E-4,1.379182E-4,3.174264E-4,4.1818674E-4,6.3180766E-4,-2.243595E-5,-2.4699006E-5,-2.6494195E-5,-2.7918097E-5,1.715375E-5,-1.3877393E-5,-1.8009034E-5,1.667207E-5,-2.0917372E-5,-2.2750057E-5,-1.9518931E-5,-1.718143E-5,-1.6802687E-5,-1.3517133E-5,-1.1106111E-5,5.99852E-6,-1.5823804E-5,-1.1768704E-5,-1.1293384E-5,-7.2688445E-6,-8.059728E-6,-4.423106E-6,-4.0576606E-6,-3.7556086E-7,-6.1408387E-6,-1.5205151E-6,-1.655235E-6,3.267274E-6,2.521897E-6,6.8833365E-6,8.660149E-6,1.3170418E-5,-3.2518776E-6,7.754194E-6,1.1683746E-5,1.72678E-5,1.763308E-5,2.4727851E-5,2.499738E-5,3.4465644E-5,2.0384246E-5,-1.1301154E-5,2.4317895E-5,3.3430755E-5,3.350183E-5,4.3351065E-5,4.9042894E-5,6.7161614E-5,3.615844E-5,-2.02985E-6,5.030727E-5,6.454794E-5,6.0438208E-5,7.629051E-5,7.733037E-5,9.477992E-5,6.477312E-5,2.5333022E-5,8.093797E-5,1.0569616E-4,1.148028E-4,1.4849138E-4,1.6536583E-4,2.2654918E-4],"categories":[],"categories_nodes":[],"categories_segments":[],"categories_sizes":[],"default_left":[0,0,0,0,0,0,0,0,0,0,0,0,0,0,0,0,0,0,0,0,0,0,0,0,0,0,0,0,0,0,0,0,0,0,0,0,0,0,0,0,0,0,0,0,0,0,0,0,0,0,0,0,0,0,0,0,0,0,0,0,0,0,0,0,0,0,0,0,0,0,0,0,0,0,0,0,0,0,0,0,0,0,0,0,0,0,0,0,0,0,0,0,0,0,0,0,0,0,0,0,0,0,0,0,0,0,0,0,0,0,0,0,0,0,0,0,0,0,0,0,0,0,0,0,0,0,0],"id":0,"left_children":[1,3,5,7,9,11,13,15,17,19,21,23,25,27,29,31,33,35,37,39,41,43,45,47,49,51,53,55,57,59,61,63,65,67,69,71,73,75,77,79,81,83,85,87,89,91,93,95,97,99,101,103,105,107,109,111,113,115,117,119,121,123,125,-1,-1,-1,-1,-1,-1,-1,-1,-1,-1,-1,-1,-1,-1,-1,-1,-1,-1,-1,-1,-1,-1,-1,-1,-1,-1,-1,-1,-1,-1,-1,-1,-1,-1,-1,-1,-1,-1,-1,-1,-1,-1,-1,-1,-1,-1,-1,-1,-1,-1,-1,-1,-1,-1,-1,-1,-1,-1,-1,-1,-1,-1,-1,-1],"loss_changes":[7.607039E-2,1.1776105E-2,1.9499354E-2,9.651184E-4,1.0343965E-3,2.8833244E-3,4.421998E-3,1.0304153E-4,1.5714345E-4,2.0655687E-4,2.310956E-4,5.0466275E-4,7.3481724E-4,9.534601E-4,1.4555883E-3,3.201887E-5,1.4663736E-5,3.7392136E-5,1.9447703E-5,4.6302215E-5,3.275076E-5,5.527553E-5,5.9908547E-5,1.9231834E-4,1.0876078E-4,2.2565201E-4,2.0240713E-4,2.8980244E-4,3.1922758E-4,3.2168534E-4,7.1438774E-4,2.1668384E-6,2.991408E-6,3.4742727E-5,9.921627E-6,4.8552174E-6,7.882714E-6,5.601294E-6,8.98799E-6,1.1773489E-5,2.1881482E-5,1.5601268E-5,9.13042E-6,2.2927255E-5,2.9131219E-5,3.6353813E-5,1.11197005E-5,4.8222748E-5,8.0132624E-5,3.363914E-5,4.592724E-5,9.206077E-5,7.953262E-5,1.19178556E-4,4.9378723E-5,7.569429E-5,1.1654571E-4,1.06721185E-4,1.02468766E-4,4.5574954E-5,1.9168388E-4,1.6673747E-4,2.087634E-4,0E0,0E0,0E0,0E0,0E0,0E0,0E0,0E0,0E0,0E0,0E0,0E0,0E0,0E0,0E0,0E0,0E0,0E0,0E0,0E0,0E0,0E0,0E0,0E0,0E0,0E0,0E0,0E0,0E0,0E0,0E0,0E0,0E0,0E0,0E0,0E0,0E0,0E0,0E0,0E0,0E0,0E0,0E0,0E0,0E0,0E0,0E0,0E0,0E0,0E0,0E0,0E0,0E0,0E0,0E0,0E0,0E0,0E0,0E0,0E0,0E0,0E0,0E0,0E0],"parents":[2147483647,0,0,1,1,2,2,3,3,4,4,5,5,6,6,7,7,8,8,9,9,10,10,11,11,12,12,13,13,14,14,15,15,16,16,17,17,18,18,19,19,20,20,21,21,22,22,23,23,24,24,25,25,26,26,27,27,28,28,29,29,30,30,31,31,32,32,33,33,34,34,35,35,36,36,37,37,38,38,39,39,40,40,41,41,42,42,43,43,44,44,45,45,46,46,47,47,48,48,49,49,50,50,51,51,52,52,53,53,54,54,55,55,56,56,57,57,58,58,59,59,60,60,61,61,62,62],"right_children":[2,4,6,8,10,12,14,16,18,20,22,24,26,28,30,32,34,36,38,40,42,44,46,48,50,52,54,56,58,60,62,64,66,68,70,72,74,76,78,80,82,84,86,88,90,92,94,96,98,100,102,104,106,108,110,112,114,116,118,120,122,124,126,-1,-1,-1,-1,-1,-1,-1,-1,-1,-1,-1,-1,-1,-1,-1,-1,-1,-1,-1,-1,-1,-1,-1,-1,-1,-1,-1,-1,-1,-1,-1,-1,-1,-1,-1,-1,-1,-1,-1,-1,-1,-1,-1,-1,-1,-1,-1,-1,-1,-1,-1,-1,-1,-1,-1,-1,-1,-1,-1,-1,-1,-1,-1,-1],"split_conditions":[2.0732767E-4,7.6717464E-5,4.8038835E-4,2.2059343E-5,1.3339928E-4,3.2085323E-4,7.8081404E-4,1.68945E5,1.20198E0,1.20662E0,9E0,3.3E1,4.2E1,1.0675565E-4,2.1519467E-4,1.865E3,1.2295E0,4.7895614E-5,1.20661E0,1.20142E0,2.4912291E-5,8.044407E-5,3.3E1,1.0654804E-4,2.7608694E-4,1.592303E-4,9.9E1,1.8E1,6.164459E-4,4.153582E-5,1.2814434E-3,3.1E2,5.445E3,8.699894E-4,1.24371E0,1.3E2,1E0,5.956077E-5,1.0199547E-3,3E0,6.0439932E-5,1.01447346E-4,1.0669691E-4,1.20612E0,1.20612E0,1.692196E-4,1.8193059E-4,4.565341E-5,2.5568105E-4,6.8E1,7.5E1,1.3E2,1.2E1,3.9026604E-4,1.09E2,1.1E2,6.164459E-4,1.42E2,7.9E1,1.9E1,4.1323042E-4,1.21E2,4.1242986E-4,-2.243595E-5,-2.4699006E-5,-2.6494195E-5,-2.7918097E-5,1.715375E-5,-1.3877393E-5,-1.8009034E-5,1.667207E-5,-2.0917372E-5,-2.2750057E-5,-1.9518931E-5,-1.718143E-5,-1.6802687E-5,-1.3517133E-5,-1.1106111E-5,5.99852E-6,-1.5823804E-5,-1.1768704E-5,-1.1293384E-5,-7.2688445E-6,-8.059728E-6,-4.423106E-6,-4.0576606E-6,-3.7556086E-7,-6.1408387E-6,-1.5205151E-6,-1.655235E-6,3.267274E-6,2.521897E-6,6.8833365E-6,8.660149E-6,1.3170418E-5,-3.2518776E-6,7.754194E-6,1.1683746E-5,1.72678E-5,1.763308E-5,2.4727851E-5,2.499738E-5,3.4465644E-5,2.0384246E-5,-1.1301154E-5,2.4317895E-5,3.3430755E-5,3.350183E-5,4.3351065E-5,4.9042894E-5,6.7161614E-5,3.615844E-5,-2.02985E-6,5.030727E-5,6.454794E-5,6.0438208E-5,7.629051E-5,7.733037E-5,9.477992E-5,6.477312E-5,2.5333022E-5,8.093797E-5,1.0569616E-4,1.148028E-4,1.4849138E-4,1.6536583E-4,2.2654918E-4],"split_indices":[27,27,27,27,27,27,27,20,10,3,19,19,19,25,25,20,0,27,6,1,25,26,19,26,27,26,19,19,27,25,27,20,20,13,0,20,19,27,15,19,26,27,27,8,8,27,27,26,27,19,19,20,19,27,18,20,27,19,18,30,26,18,25,0,0,0,0,0,0,0,0,0,0,0,0,0,0,0,0,0,0,0,0,0,0,0,0,0,0,0,0,0,0,0,0,0,0,0,0,0,0,0,0,0,0,0,0,0,0,0,0,0,0,0,0,0,0,0,0,0,0,0,0,0,0,0,0],"split_type":[0,0,0,0,0,0,0,0,0,0,0,0,0,0,0,0,0,0,0,0,0,0,0,0,0,0,0,0,0,0,0,0,0,0,0,0,0,0,0,0,0,0,0,0,0,0,0,0,0,0,0,0,0,0,0,0,0,0,0,0,0,0,0,0,0,0,0,0,0,0,0,0,0,0,0,0,0,0,0,0,0,0,0,0,0,0,0,0,0,0,0,0,0,0,0,0,0,0,0,0,0,0,0,0,0,0,0,0,0,0,0,0,0,0,0,0,0,0,0,0,0,0,0,0,0,0,0],"sum_hessian":[1.263168E7,8.529843E6,4.101837E6,5.231624E6,3.298219E6,3.198111E6,9.03726E5,3.806543E6,1.425081E6,1.494995E6,1.803224E6,1.946233E6,1.251878E6,6.95154E5,2.08572E5,3.771712E6,3.4831E4,1.053553E6,3.71528E5,7.79231E5,7.15764E5,9.14146E5,8.89078E5,1.336636E6,6.09597E5,6.55003E5,5.96875E5,3.3288E5,3.62274E5,1.26312E5,8.226E4,2.33081E5,3.538631E6,1.5156E4,1.9675E4,5.33102E5,5.20451E5,1.86933E5,1.84595E5,2.82024E5,4.97207E5,4.47194E5,2.6857E5,4.32207E5,4.81939E5,6.91608E5,1.9747E5,4.11438E5,9.25198E5,3.58175E5,2.51422E5,2.25198E5,4.29805E5,4.43507E5,1.53368E5,8.1258E4,2.51622E5,2.12612E5,1.49662E5,1.0931E4,1.15381E5,6.1219E4,2.1041E4,4.8129E4,1.84952E5,1.38611E5,3.40002E6,4.711E3,1.0445E4,1.8903E4,7.72E2,2.26305E5,3.06797E5,2.70674E5,2.49777E5,9.5018E4,9.1915E4,1.81788E5,2.807E3,1.82337E5,9.9687E4,2.85308E5,2.11899E5,1.73441E5,2.73753E5,9.2397E4,1.76173E5,1.45937E5,2.8627E5,1.64024E5,3.17915E5,3.20862E5,3.70746E5,1.04465E5,9.3005E4,3.9649E4,3.71789E5,4.60321E5,4.64877E5,2.81689E5,7.6486E4,1.90587E5,6.0835E4,2.16619E5,8.579E3,1.19343E5,3.10462E5,2.33158E5,2.10349E5,1.38354E5,1.5014E4,7.6282E4,4.976E3,1.78825E5,7.2797E4,1.6262E5,4.9992E4,1.07443E5,4.2219E4,4.445E3,6.486E3,4.8789E4,6.6592E4,4.1864E4,1.9355E4,1.273E4,8.311E3],"tree_param":{"num_deleted":"0","num_feature":"35","num_nodes":"127","size_leaf_vector":"1"}},{"base_weights":[1.2067022E-10,-3.447769E-5,8.598764E-5,-5.674367E-5,1.0773448E-6,6.2930565E-5,1.891378E-4,-6.3695115E-5,-3.9061902E-5,-1.1662651E-5,1.3849898E-5,4.6290206E-5,9.6791904E-5,1.6682006E-4,3.1493613E-4,-6.402582E-5,-2.6238557E-5,-4.632858E-5,-3.0199286E-5,-2.1053807E-5,-4.8880684E-6,4.9254922E-6,2.272882E-5,3.056453E-5,5.9078615E-5,7.319566E-5,1.1461525E-4,1.1124204E-4,1.860027E-4,2.4740028E-4,3.9934082E-4,-5.4908553E-5,-6.497236E-5,-5.877032E-6,-3.9299593E-5,-4.9124385E-5,-4.0379357E-5,3.464685E-4,-3.0415782E-5,-2.5792122E-5,-1.40324455E-5,-1.0566889E-5,1.4322421E-6,-3.512972E-6,9.518943E-6,1.5344605E-5,2.8042601E-5,1.502632E-5,3.7754926E-5,5.2485004E-5,7.78432E-5,2.8209108E-5,7.8602854E-5,9.8200544E-5,1.2929244E-4,4.3710534E-5,1.2380534E-4,1.6709417E-4,2.1716906E-4,1.7601199E-4,2.9223194E-4,3.608158E-4,5.424681E-4,-1.7083055E-5,-1.5027772E-5,-1.849495E-5,-1.9542667E-5,-1.1727758E-5,2.7915865E-5,-1.6107784E-5,-5.359243E-6,-1.5320218E-5,-1.3684228E-5,-1.2895545E-5,-1.0851966E-5,-1.0018068E-5,7.112829E-4,-1.0298995E-5,-6.025679E-6,-1.0245276E-5,-6.9511398E-6,-6.884375E-6,-2.9720468E-6,-5.877581E-6,-2.440111E-6,-8.257069E-7,2.23626E-6,-7.662689E-6,-4.7203264E-7,1.2045076E-6,4.1257235E-6,8.081049E-7,5.2571095E-6,8.133125E-6,2.1528544E-5,5.414097E-6,-1.0251618E-5,9.579898E-6,1.43999105E-5,1.3023414E-5,1.8552797E-5,2.2324226E-5,3.3949316E-5,1.18029E-5,-9.982829E-6,1.8873028E-5,2.6382173E-5,2.8142998E-5,3.8477927E-5,3.64418E-5,4.8467282E-5,-1.986899E-5,1.6985756E-5,3.6832098E-5,1.2270207E-4,4.0471725E-5,5.360263E-5,5.0069797E-5,6.9741574E-5,5.2297328E-5,2.3757269E-4,8.288842E-5,1.1436773E-4,3.245798E-5,1.1043398E-4,1.3115814E-4,1.8832732E-4],"categories":[],"categories_nodes":[],"categories_segments":[],"categories_sizes":[],"default_left":[0,0,0,0,0,0,0,0,0,0,0,0,0,0,0,0,0,0,0,0,0,0,0,0,0,0,0,0,0,0,0,0,0,0,0,0,0,0,0,0,0,0,0,0,0,0,0,0,0,0,0,0,0,0,0,0,0,0,0,0,0,0,0,0,0,0,0,0,0,0,0,0,0,0,0,0,0,0,0,0,0,0,0,0,0,0,0,0,0,0,0,0,0,0,0,0,0,0,0,0,0,0,0,0,0,0,0,0,0,0,0,0,0,0,0,0,0,0,0,0,0,0,0,0,0,0,0],"id":1,"left_children":[1,3,5,7,9,11,13,15,17,19,21,23,25,27,29,31,33,35,37,39,41,43,45,47,49,51,53,55,57,59,61,63,65,67,69,71,73,75,77,79,81,83,85,87,89,91,93,95,97,99,101,103,105,107,109,111,113,115,117,119,121,123,125,-1,-1,-1,-1,-1,-1,-1,-1,-1,-1,-1,-1,-1,-1,-1,-1,-1,-1,-1,-1,-1,-1,-1,-1,-1,-1,-1,-1,-1,-1,-1,-1,-1,-1,-1,-1,-1,-1,-1,-1,-1,-1,-1,-1,-1,-1,-1,-1,-1,-1,-1,-1,-1,-1,-1,-1,-1,-1,-1,-1,-1,-1,-1,-1],"loss_changes":[3.744866E-2,7.1380157E-3,8.598294E-3,6.8147294E-4,5.6498626E-4,1.6649077E-3,1.8542632E-3,4.9294904E-5,1.00761885E-4,1.1059003E-4,1.3738696E-4,3.9842585E-4,4.094541E-4,5.980376E-4,5.6718756E-4,3.4041703E-5,9.2630835E-6,1.4297431E-5,5.749293E-5,2.4234847E-5,3.6243946E-5,3.3517288E-5,3.410253E-5,9.927334E-5,1.3518264E-4,1.0190904E-4,1.3361406E-4,1.2211432E-4,2.4572108E-4,1.7688912E-4,2.437043E-4,3.6334386E-6,2.012588E-6,4.4736033E-5,6.5458516E-6,3.9866427E-6,3.0109659E-6,3.1153267E-4,2.8485258E-5,9.530369E-6,1.079588E-5,1.1680095E-5,1.20431505E-5,1.30224935E-5,1.3046312E-5,1.0026539E-5,2.0596111E-5,4.177574E-5,3.622932E-5,6.864779E-5,3.4402008E-5,3.0776137E-5,5.4798555E-5,3.454322E-5,7.38604E-5,3.2047497E-5,3.5658944E-5,9.673415E-5,1.2109568E-4,2.203061E-5,4.8057642E-5,6.421562E-5,8.3937775E-5,0E0,0E0,0E0,0E0,0E0,0E0,0E0,0E0,0E0,0E0,0E0,0E0,0E0,0E0,0E0,0E0,0E0,0E0,0E0,0E0,0E0,0E0,0E0,0E0,0E0,0E0,0E0,0E0,0E0,0E0,0E0,0E0,0E0,0E0,0E0,0E0,0E0,0E0,0E0,0E0,0E0,0E0,0E0,0E0,0E0,0E0,0E0,0E0,0E0,0E0,0E0,0E0,0E0,0E0,0E0,0E0,0E0,0E0,0E0,0E0,0E0,0E0,0E0,0E0],"parents":[2147483647,0,0,1,1,2,2,3,3,4,4,5,5,6,6,7,7,8,8,9,9,10,10,11,11,12,12,13,13,14,14,15,15,16,16,17,17,18,18,19,19,20,20,21,21,22,22,23,23,24,24,25,25,26,26,27,27,28,28,29,29,30,30,31,31,32,32,33,33,34,34,35,35,36,36,37,37,38,38,39,39,40,40,41,41,42,42,43,43,44,44,45,45,46,46,47,47,48,48,49,49,50,50,51,51,52,52,53,53,54,54,55,55,56,56,57,57,58,58,59,59,60,60,61,61,62,62],"right_children":[2,4,6,8,10,12,14,16,18,20,22,24,26,28,30,32,34,36,38,40,42,44,46,48,50,52,54,56,58,60,62,64,66,68,70,72,74,76,78,80,82,84,86,88,90,92,94,96,98,100,102,104,106,108,110,112,114,116,118,120,122,124,126,-1,-1,-1,-1,-1,-1,-1,-1,-1,-1,-1,-1,-1,-1,-1,-1,-1,-1,-1,-1,-1,-1,-1,-1,-1,-1,-1,-1,-1,-1,-1,-1,-1,-1,-1,-1,-1,-1,-1,-1,-1,-1,-1,-1,-1,-1,-1,-1,-1,-1,-1,-1,-1,-1,-1,-1,-1,-1,-1,-1,-1,-1,-1,-1],"split_conditions":[2.3018307E-4,8.8243614E-5,5.4070685E-4,2.8886738E-5,1.5527743E-4,3.698184E-4,5.76908E-4,1.68945E5,1.20131E0,1.20662E0,3.539516E-5,4.995139E-5,7.402622E-5,2.7593772E-4,1.0609748E-3,1.465E3,1.22871E0,6.27512E-5,1.2013E0,3E0,6.957346E-5,3E0,1.1092784E-4,6E0,6.1E1,1.6670268E-5,2.598811E-4,1.4998156E-4,7.1691413E-4,4.6E1,1.74E2,1.20107E0,5.445E3,1.22672E0,1.23501E0,1E0,2E0,1.9E1,3E0,1.20136E0,1.20167E0,3.7260346E-5,3.724324E-5,3.0316294E-5,1.8317981E-4,1.20632E0,1.24149E0,1.55E2,2.9674405E-4,2.8949813E-4,1.36E2,1.45E2,1.789212E-4,1.24019E0,6.9E1,1.6671102E-5,2.4020781E-4,2.2E1,2.6E1,3.000021E-3,1.74E2,5E0,3.0326843E-4,-1.7083055E-5,-1.5027772E-5,-1.849495E-5,-1.9542667E-5,-1.1727758E-5,2.7915865E-5,-1.6107784E-5,-5.359243E-6,-1.5320218E-5,-1.3684228E-5,-1.2895545E-5,-1.0851966E-5,-1.0018068E-5,7.112829E-4,-1.0298995E-5,-6.025679E-6,-1.0245276E-5,-6.9511398E-6,-6.884375E-6,-2.9720468E-6,-5.877581E-6,-2.440111E-6,-8.257069E-7,2.23626E-6,-7.662689E-6,-4.7203264E-7,1.2045076E-6,4.1257235E-6,8.081049E-7,5.2571095E-6,8.133125E-6,2.1528544E-5,5.414097E-6,-1.0251618E-5,9.579898E-6,1.43999105E-5,1.3023414E-5,1.8552797E-5,2.2324226E-5,3.3949316E-5,1.18029E-5,-9.982829E-6,1.8873028E-5,2.6382173E-5,2.8142998E-5,3.8477927E-5,3.64418E-5,4.8467282E-5,-1.986899E-5,1.6985756E-5,3.6832098E-5,1.2270207E-4,4.0471725E-5,5.360263E-5,5.0069797E-5,6.9741574E-5,5.2297328E-5,2.3757269E-4,8.288842E-5,1.1436773E-4,3.245798E-5,1.1043398E-4,1.3115814E-4,1.8832732E-4],"split_indices":[27,27,27,27,27,27,26,20,0,2,25,25,25,26,27,20,5,27,3,19,26,19,26,19,19,25,26,26,27,18,18,6,20,0,0,19,19,30,19,3,10,26,25,26,27,9,1,20,27,27,19,20,26,10,18,26,16,18,18,13,18,19,14,0,0,0,0,0,0,0,0,0,0,0,0,0,0,0,0,0,0,0,0,0,0,0,0,0,0,0,0,0,0,0,0,0,0,0,0,0,0,0,0,0,0,0,0,0,0,0,0,0,0,0,0,0,0,0,0,0,0,0,0,0,0,0,0],"split_type":[0,0,0,0,0,0,0,0,0,0,0,0,0,0,0,0,0,0,0,0,0,0,0,0,0,0,0,0,0,0,0,0,0,0,0,0,0,0,0,0,0,0,0,0,0,0,0,0,0,0,0,0,0,0,0,0,0,0,0,0,0,0,0,0,0,0,0,0,0,0,0,0,0,0,0,0,0,0,0,0,0,0,0,0,0,0,0,0,0,0,0,0,0,0,0,0,0,0,0,0,0,0,0,0,0,0,0,0,0,0,0,0,0,0,0,0,0,0,0,0,0,0,0,0,0,0,0],"sum_hessian":[1.263168E7,9.016427E6,3.615253E6,5.54434E6,3.472087E6,2.954776E6,6.60477E5,3.979736E6,1.564604E6,1.738259E6,1.733828E6,1.981176E6,9.736E5,5.6096E5,9.9517E4,3.944905E6,3.4831E4,8.59706E5,7.04898E5,7.28452E5,1.009807E6,8.647E5,8.69128E5,8.88548E5,1.092628E6,4.18954E5,5.54646E5,1.43937E5,4.17023E5,5.5285E4,4.4232E4,3.71036E5,3.573869E6,1.3612E4,2.1219E4,5.84851E5,2.74855E5,4.04E2,7.04494E5,4.34936E5,2.93516E5,5.31896E5,4.77911E5,3.04787E5,5.59913E5,3.63709E5,5.05419E5,2.81101E5,6.07447E5,8.08527E5,2.84101E5,4.4954E4,3.74E5,2.61829E5,2.92817E5,2.2578E4,1.21359E5,2.59557E5,1.57466E5,2.1328E4,3.3957E4,3.4854E4,9.378E3,2.60818E5,1.10218E5,1.73846E5,3.400023E6,1.0191E4,3.421E3,1.2694E4,8.525E3,3.7646E5,2.08391E5,1.69708E5,1.05147E5,3.41E2,6.3E1,5.10905E5,1.93589E5,1.03841E5,3.31095E5,9.2854E4,2.00662E5,1.12948E5,4.18948E5,2.81972E5,1.95939E5,2.4662E4,2.80125E5,2.43431E5,3.16482E5,5.3443E4,3.10266E5,4.94869E5,1.055E4,2.64841E5,1.626E4,3.87335E5,2.20112E5,4.10496E5,3.98031E5,2.58963E5,2.5138E4,3.8062E4,6.892E3,1.39525E5,2.34475E5,2.28463E5,3.3366E4,2.35698E5,5.7119E4,2.372E3,2.0206E4,1.20923E5,4.36E2,6.8681E4,1.90876E5,3.6751E4,1.20715E5,2.1271E4,5.7E1,2.8803E4,5.154E3,9.79E2,3.3875E4,4.2E3,5.178E3],"tree_param":{"num_deleted":"0","num_feature":"35","num_nodes":"127","size_leaf_vector":"1"}},{"base_weights":[2.575493E-10,-2.4064906E-5,6.079662E-5,-4.0368664E-5,-2.6337375E-7,3.8719063E-5,1.1692506E-4,-2.8661723E-5,-4.478776E-5,-8.842437E-6,1.0331453E-5,2.5756213E-5,5.446889E-5,1.0469643E-4,2.2532124E-4,-3.2537322E-5,-2.0063377E-5,-4.5026096E-5,-1.8351917E-5,-1.45543345E-5,-1.7161552E-6,-2.5943152E-6,1.4277872E-5,1.6673359E-5,3.3845663E-5,4.7457717E-5,7.2461116E-5,9.0738045E-5,1.416123E-4,1.8951707E-4,3.0980268E-4,-3.494894E-5,-2.8438117E-5,-2.2851975E-5,-1.2857199E-5,-3.8953905E-5,-4.5455923E-5,4.2035E-6,-2.9177085E-5,-2.3020564E-5,-1.1569059E-5,-7.967894E-6,2.0937723E-6,-8.9164797E-7,-4.628355E-5,1.2684397E-5,3.741607E-5,6.3185394E-6,2.0385181E-5,2.6504413E-5,4.024257E-5,4.340359E-5,6.574715E-5,6.6933535E-5,8.9383815E-5,6.6552755E-5,1.0098901E-4,1.2451473E-4,1.718764E-4,1.8247418E-4,4.0355002E-4,2.9618034E-4,7.074303E-4,-1.1156981E-5,-9.888998E-6,-9.442165E-6,-7.8896865E-6,-7.65765E-6,-5.534929E-6,-5.4830716E-6,-2.5533768E-6,-1.2376765E-5,-1.0428487E-5,-1.3666516E-5,-1.2112147E-5,-8.202713E-6,8.85749E-5,-2.7421303E-5,-7.4406257E-6,-8.528161E-6,-6.1378882E-6,-3.0235215E-6,-6.6901553E-6,-2.6269486E-6,5.028407E-6,-1.9087263E-7,2.4888761E-6,-8.0412866E-7,6.0624498E-6,-1.088275E-5,-2.0968499E-5,2.657168E-6,5.653012E-6,1.114041E-5,1.0895797E-4,1.7576145E-6,2.8011844E-5,1.9261684E-6,6.8139293E-6,7.2765365E-6,1.2229125E-5,1.152303E-5,1.9796164E-5,9.738688E-6,1.4739553E-5,1.7489163E-5,2.297321E-5,1.9114927E-5,2.795612E-5,2.6363668E-5,5.594663E-5,1.4342793E-5,2.451942E-5,2.8218483E-5,3.8488295E-5,2.9334087E-5,3.9982944E-5,4.5055673E-5,6.095605E-5,3.2956403E-5,6.014318E-5,1.4582339E-3,1.0329286E-4,7.3786934E-5,1.0560739E-4,1.6333915E-4,2.5853358E-4],"categories":[],"categories_nodes":[],"categories_segments":[],"categories_sizes":[],"default_left":[0,0,0,0,0,0,0,0,0,0,0,0,0,0,0,0,0,0,0,0,0,0,0,0,0,0,0,0,0,0,0,0,0,0,0,0,0,0,0,0,0,0,0,0,0,0,0,0,0,0,0,0,0,0,0,0,0,0,0,0,0,0,0,0,0,0,0,0,0,0,0,0,0,0,0,0,0,0,0,0,0,0,0,0,0,0,0,0,0,0,0,0,0,0,0,0,0,0,0,0,0,0,0,0,0,0,0,0,0,0,0,0,0,0,0,0,0,0,0,0,0,0,0,0,0,0,0],"id":2,"left_children":[1,3,5,7,9,11,13,15,17,19,21,23,25,27,29,31,33,35,37,39,41,43,45,47,49,51,53,55,57,59,61,63,65,67,69,71,73,75,77,79,81,83,85,87,89,91,93,95,97,99,101,103,105,107,109,111,113,115,117,119,121,123,125,-1,-1,-1,-1,-1,-1,-1,-1,-1,-1,-1,-1,-1,-1,-1,-1,-1,-1,-1,-1,-1,-1,-1,-1,-1,-1,-1,-1,-1,-1,-1,-1,-1,-1,-1,-1,-1,-1,-1,-1,-1,-1,-1,-1,-1,-1,-1,-1,-1,-1,-1,-1,-1,-1,-1,-1,-1,-1,-1,-1,-1,-1,-1,-1],"loss_changes":[1.848109E-2,3.5117255E-3,4.4388743E-3,2.7784705E-4,3.343859E-4,5.2487664E-4,1.3403986E-3,4.9043912E-5,2.4564564E-5,8.274488E-5,8.396599E-5,1.0361528E-4,1.464109E-4,4.6823546E-4,3.1002797E-4,1.0028016E-5,9.1886905E-6,1.0084361E-5,8.506628E-6,2.8518552E-5,2.154236E-5,2.8640468E-5,4.649427E-5,2.553314E-5,3.50271E-5,6.192608E-5,3.0438066E-5,1.6347226E-4,1.2898911E-4,1.08464155E-4,1.6506785E-4,2.840883E-6,2.4394249E-6,3.8797734E-6,3.004925E-6,2.4637848E-6,1.816079E-6,1.0374766E-4,6.406637E-6,4.07231E-6,1.3344863E-5,6.678829E-6,9.515631E-6,1.3986569E-5,3.410063E-6,2.7809234E-5,7.4341733E-6,7.0165775E-6,1.589721E-5,1.1138603E-5,1.8801133E-5,4.2847125E-5,1.22226775E-5,2.0714942E-5,1.1693453E-5,5.584088E-5,8.758623E-5,3.7306454E-5,6.109476E-5,9.111641E-5,6.0378946E-4,8.2663726E-5,2.493593E-5,0E0,0E0,0E0,0E0,0E0,0E0,0E0,0E0,0E0,0E0,0E0,0E0,0E0,0E0,0E0,0E0,0E0,0E0,0E0,0E0,0E0,0E0,0E0,0E0,0E0,0E0,0E0,0E0,0E0,0E0,0E0,0E0,0E0,0E0,0E0,0E0,0E0,0E0,0E0,0E0,0E0,0E0,0E0,0E0,0E0,0E0,0E0,0E0,0E0,0E0,0E0,0E0,0E0,0E0,0E0,0E0,0E0,0E0,0E0,0E0,0E0,0E0,0E0,0E0],"parents":[2147483647,0,0,1,1,2,2,3,3,4,4,5,5,6,6,7,7,8,8,9,9,10,10,11,11,12,12,13,13,14,14,15,15,16,16,17,17,18,18,19,19,20,20,21,21,22,22,23,23,24,24,25,25,26,26,27,27,28,28,29,29,30,30,31,31,32,32,33,33,34,34,35,35,36,36,37,37,38,38,39,39,40,40,41,41,42,42,43,43,44,44,45,45,46,46,47,47,48,48,49,49,50,50,51,51,52,52,53,53,54,54,55,55,56,56,57,57,58,58,59,59,60,60,61,61,62,62],"right_children":[2,4,6,8,10,12,14,16,18,20,22,24,26,28,30,32,34,36,38,40,42,44,46,48,50,52,54,56,58,60,62,64,66,68,70,72,74,76,78,80,82,84,86,88,90,92,94,96,98,100,102,104,106,108,110,112,114,116,118,120,122,124,126,-1,-1,-1,-1,-1,-1,-1,-1,-1,-1,-1,-1,-1,-1,-1,-1,-1,-1,-1,-1,-1,-1,-1,-1,-1,-1,-1,-1,-1,-1,-1,-1,-1,-1,-1,-1,-1,-1,-1,-1,-1,-1,-1,-1,-1,-1,-1,-1,-1,-1,-1,-1,-1,-1,-1,-1,-1,-1,-1,-1,-1,-1,-1,-1],"split_conditions":[1.2326031E-4,8.183694E-5,4.531514E-4,4.25E2,1.6216407E-4,3.0437147E-4,9.4964355E-4,1.20157E0,1.68945E5,5E0,7.165452E-5,9E0,3.3E1,1.6504014E-4,2.19E2,5.7146968E-5,1.2108E0,1.19E3,1.22758E0,1.20188E0,1.19862176E-4,3.6E2,1.2381E0,2.0130366E-4,2.4617495E-4,1.23649E0,1.4677558E-4,3.4E1,4.481565E-4,2.4020781E-4,6.6006184E-4,3.821031E-5,3.423426E-5,3.7289137E-5,3.324989E-5,1.20107E0,1.6298E5,1.22672E0,1.22985E0,4.3869604E-5,1.35E2,1.23811E0,1E1,1.23689E0,1.21685E0,1.8E1,1.2814434E-3,1.1800528E-3,1.20591E0,3.6E1,1.2396E0,1E0,2.1974175E-4,1.2396E0,1.2438078E-4,1E0,1.24074E0,3.2E1,1.3E1,9.512733E-5,2.675813E-4,7.851226E-4,8.80003E-4,-1.1156981E-5,-9.888998E-6,-9.442165E-6,-7.8896865E-6,-7.65765E-6,-5.534929E-6,-5.4830716E-6,-2.5533768E-6,-1.2376765E-5,-1.0428487E-5,-1.3666516E-5,-1.2112147E-5,-8.202713E-6,8.85749E-5,-2.7421303E-5,-7.4406257E-6,-8.528161E-6,-6.1378882E-6,-3.0235215E-6,-6.6901553E-6,-2.6269486E-6,5.028407E-6,-1.9087263E-7,2.4888761E-6,-8.0412866E-7,6.0624498E-6,-1.088275E-5,-2.0968499E-5,2.657168E-6,5.653012E-6,1.114041E-5,1.0895797E-4,1.7576145E-6,2.8011844E-5,1.9261684E-6,6.8139293E-6,7.2765365E-6,1.2229125E-5,1.152303E-5,1.9796164E-5,9.738688E-6,1.4739553E-5,1.7489163E-5,2.297321E-5,1.9114927E-5,2.795612E-5,2.6363668E-5,5.594663E-5,1.4342793E-5,2.451942E-5,2.8218483E-5,3.8488295E-5,2.9334087E-5,3.9982944E-5,4.5055673E-5,6.095605E-5,3.2956403E-5,6.014318E-5,1.4582339E-3,1.0329286E-4,7.3786934E-5,1.0560739E-4,1.6333915E-4,2.5853358E-4],"split_indices":[26,27,27,20,27,27,27,6,20,19,26,18,18,25,19,27,7,20,0,3,27,20,9,27,27,12,25,19,26,16,14,27,26,26,26,6,20,0,9,26,20,10,18,8,0,19,27,13,7,18,12,32,26,12,16,32,6,18,4,25,26,26,13,0,0,0,0,0,0,0,0,0,0,0,0,0,0,0,0,0,0,0,0,0,0,0,0,0,0,0,0,0,0,0,0,0,0,0,0,0,0,0,0,0,0,0,0,0,0,0,0,0,0,0,0,0,0,0,0,0,0,0,0,0,0,0,0],"split_type":[0,0,0,0,0,0,0,0,0,0,0,0,0,0,0,0,0,0,0,0,0,0,0,0,0,0,0,0,0,0,0,0,0,0,0,0,0,0,0,0,0,0,0,0,0,0,0,0,0,0,0,0,0,0,0,0,0,0,0,0,0,0,0,0,0,0,0,0,0,0,0,0,0,0,0,0,0,0,0,0,0,0,0,0,0,0,0,0,0,0,0,0,0,0,0,0,0,0,0,0,0,0,0,0,0,0,0,0,0,0,0,0,0,0,0,0,0,0,0,0,0,0,0,0,0,0,0],"sum_hessian":[1.263168E7,9.049569E6,3.582111E6,5.370703E6,3.678866E6,2.570882E6,1.011229E6,1.471762E6,3.898941E6,2.032814E6,1.646052E6,1.410213E6,1.160669E6,9.08715E5,1.02514E5,1.01449E6,4.57272E5,3.864103E6,3.4838E4,1.128384E6,9.0443E5,3.85013E5,1.261039E6,6.64318E5,7.45895E5,8.3521E5,3.25459E5,6.59393E5,2.49322E5,7.2002E4,3.0512E4,6.38717E5,3.75773E5,3.29689E5,1.27583E5,2.55449E5,3.608654E6,1.1298E4,2.354E4,2.94155E5,8.34229E5,3.42469E5,5.61961E5,3.70572E5,1.4441E4,1.179791E6,8.1248E4,1.75297E5,4.89021E5,3.47314E5,3.98581E5,6.83668E5,1.51542E5,2.4533E5,8.0129E4,1.9629E5,4.63103E5,1.5932E5,9.0002E4,6.971E4,2.292E3,2.9503E4,1.009E3,3.00054E5,3.38663E5,1.55328E5,2.20445E5,2.05115E5,1.24574E5,5.6776E4,7.0807E4,1.64896E5,9.0553E4,3.539604E6,6.905E4,1.0194E4,1.104E3,1.545E3,2.1995E4,9.4544E4,1.99611E5,7.32485E5,1.01744E5,3.31886E5,1.0583E4,3.90211E5,1.7175E5,3.41612E5,2.896E4,1.0144E4,4.297E3,7.2764E5,4.52151E5,8.1179E4,6.9E1,1.74377E5,9.2E2,6.9873E4,4.19148E5,2.99995E5,4.7319E4,3.72098E5,2.6483E4,2.34935E5,4.48733E5,8.9786E4,6.1756E4,2.18552E5,2.6778E4,7.8908E4,1.221E3,8.7833E4,1.08457E5,3.69392E5,9.3711E4,3.9329E4,1.19991E5,5.3172E4,3.683E4,1.385E4,5.586E4,2.9E1,2.263E3,1.5536E4,1.3967E4,4.93E2,5.16E2],"tree_param":{"num_deleted":"0","num_feature":"35","num_nodes":"127","size_leaf_vector":"1"}},{"base_weights":[4.0496242E-10,-1.9229667E-5,3.7634065E-5,-2.93796E-5,-4.468911E-6,2.6369724E-5,9.2300055E-5,-2.2400454E-5,-3.1489497E-5,-1.2019161E-5,1.1934058E-6,1.7892027E-5,4.3778644E-5,6.904744E-5,1.2752297E-4,-2.5518348E-5,-1.9005087E-5,-3.166175E-5,-1.2852205E-5,-1.5673713E-5,-6.4001E-6,-3.5333208E-6,5.106298E-6,8.210462E-6,2.2972657E-5,3.4445187E-5,5.587842E-5,4.7794045E-5,7.8726116E-5,1.15515984E-4,1.9986033E-4,-8.304588E-6,-2.3450433E-5,-2.064231E-5,-1.4198018E-5,-2.8174112E-5,-3.1905845E-5,6.641168E-6,-2.171518E-5,-1.8239165E-5,-1.2370755E-5,-1.1107207E-5,-4.1884828E-6,-1.2667401E-5,-1.9979507E-6,9.566093E-7,8.840207E-6,2.3291357E-6,1.485819E-5,2.1212361E-5,4.3799704E-5,2.5042997E-5,4.3663716E-5,5.019774E-5,7.070103E-5,3.209795E-5,6.186028E-5,7.529131E-5,1.2895357E-4,1.01890284E-4,1.4151317E-4,1.7360125E-4,3.0396995E-4,-7.245098E-6,-5.246682E-6,-7.3042793E-6,-5.6105764E-6,-4.9070545E-6,-1.6539803E-6,-8.511062E-6,8.304128E-6,-9.6100885E-6,-8.830334E-6,-5.743649E-6,1.152952E-4,-2.1171236E-5,-5.211456E-6,-6.363809E-6,-4.994179E-6,-4.290409E-6,-2.4166989E-6,-4.6760197E-6,-2.5263753E-6,-1.9404874E-6,9.865794E-7,-3.2929695E-6,-1.0310098E-5,-1.98812E-6,2.2654481E-7,8.474865E-8,4.8619772E-6,2.3292548E-6,7.0552956E-6,-3.3500455E-6,1.5988218E-6,2.1364701E-6,6.5731892E-6,4.9165506E-6,8.079752E-6,1.0014882E-5,1.672595E-5,3.5149105E-6,8.716677E-6,1.2272664E-5,1.8720299E-5,1.0993592E-5,1.653904E-5,1.5092467E-5,2.360587E-5,-5.2230376E-7,1.1416894E-5,9.751055E-6,2.0337717E-5,2.1945314E-5,3.8992104E-5,3.2106014E-5,5.6559034E-5,2.9186363E-5,4.621266E-5,3.6393212E-5,5.530645E-5,8.9825866E-5,4.8277147E-5,7.372108E-5,1.1628654E-4],"categories":[],"categories_nodes":[],"categories_segments":[],"categories_sizes":[],"default_left":[0,0,0,0,0,0,0,0,0,0,0,0,0,0,0,0,0,0,0,0,0,0,0,0,0,0,0,0,0,0,0,0,0,0,0,0,0,0,0,0,0,0,0,0,0,0,0,0,0,0,0,0,0,0,0,0,0,0,0,0,0,0,0,0,0,0,0,0,0,0,0,0,0,0,0,0,0,0,0,0,0,0,0,0,0,0,0,0,0,0,0,0,0,0,0,0,0,0,0,0,0,0,0,0,0,0,0,0,0,0,0,0,0,0,0,0,0,0,0,0,0,0,0,0,0],"id":3,"left_children":[1,3,5,7,9,11,13,15,17,19,21,23,25,27,29,31,33,35,37,39,41,43,45,47,49,51,53,55,57,59,61,-1,63,65,67,69,71,73,75,77,79,81,83,85,87,89,91,93,95,97,99,101,103,105,107,109,111,113,115,117,119,121,123,-1,-1,-1,-1,-1,-1,-1,-1,-1,-1,-1,-1,-1,-1,-1,-1,-1,-1,-1,-1,-1,-1,-1,-1,-1,-1,-1,-1,-1,-1,-1,-1,-1,-1,-1,-1,-1,-1,-1,-1,-1,-1,-1,-1,-1,-1,-1,-1,-1,-1,-1,-1,-1,-1,-1,-1,-1,-1,-1,-1,-1,-1],"loss_changes":[9.141523E-3,1.2524892E-3,2.6304452E-3,7.294305E-5,1.4562483E-4,5.227425E-4,5.97748E-4,1.21730845E-5,1.2211036E-5,2.997664E-5,3.600085E-5,1.17165095E-4,1.3099518E-4,9.042863E-5,2.5204616E-4,2.681394E-6,4.332047E-6,3.2072421E-6,6.018733E-6,7.4947166E-6,5.988719E-6,1.2363311E-5,1.6500577E-5,3.2051717E-5,5.7271332E-5,5.6756428E-5,4.2528845E-5,3.036941E-5,5.2102725E-5,8.815527E-5,1.1288945E-4,0E0,1.2784731E-6,2.9517687E-6,2.622035E-6,2.700981E-6,1.1115335E-6,1.0605542E-4,5.0808294E-6,2.3561588E-6,3.2211938E-6,2.212384E-6,6.6716743E-6,4.654212E-6,9.61837E-6,5.1851644E-6,8.8526795E-6,1.7612647E-5,2.0996522E-5,3.9745704E-5,1.5157275E-5,1.7335566E-5,1.7064798E-5,2.4408393E-5,2.2785098E-5,1.3108911E-5,1.2631499E-5,3.3079763E-5,2.5242742E-5,3.918435E-5,7.405819E-5,5.2579097E-5,4.043395E-5,0E0,0E0,0E0,0E0,0E0,0E0,0E0,0E0,0E0,0E0,0E0,0E0,0E0,0E0,0E0,0E0,0E0,0E0,0E0,0E0,0E0,0E0,0E0,0E0,0E0,0E0,0E0,0E0,0E0,0E0,0E0,0E0,0E0,0E0,0E0,0E0,0E0,0E0,0E0,0E0,0E0,0E0,0E0,0E0,0E0,0E0,0E0,0E0,0E0,0E0,0E0,0E0,0E0,0E0,0E0,0E0,0E0,0E0,0E0,0E0,0E0,0E0],"parents":[2147483647,0,0,1,1,2,2,3,3,4,4,5,5,6,6,7,7,8,8,9,9,10,10,11,11,12,12,13,13,14,14,15,15,16,16,17,17,18,18,19,19,20,20,21,21,22,22,23,23,24,24,25,25,26,26,27,27,28,28,29,29,30,30,32,32,33,33,34,34,35,35,36,36,37,37,38,38,39,39,40,40,41,41,42,42,43,43,44,44,45,45,46,46,47,47,48,48,49,49,50,50,51,51,52,52,53,53,54,54,55,55,56,56,57,57,58,58,59,59,60,60,61,61,62,62],"right_children":[2,4,6,8,10,12,14,16,18,20,22,24,26,28,30,32,34,36,38,40,42,44,46,48,50,52,54,56,58,60,62,-1,64,66,68,70,72,74,76,78,80,82,84,86,88,90,92,94,96,98,100,102,104,106,108,110,112,114,116,118,120,122,124,-1,-1,-1,-1,-1,-1,-1,-1,-1,-1,-1,-1,-1,-1,-1,-1,-1,-1,-1,-1,-1,-1,-1,-1,-1,-1,-1,-1,-1,-1,-1,-1,-1,-1,-1,-1,-1,-1,-1,-1,-1,-1,-1,-1,-1,-1,-1,-1,-1,-1,-1,-1,-1,-1,-1,-1,-1,-1,-1,-1,-1,-1],"split_conditions":[1.9976837E-4,6.6641915E-5,3.0002714E-4,5.75E2,1.2117455E-4,1.9143082E-4,6.7091594E-4,1.20102E0,1.68945E5,1.20693E0,3E0,5E0,3.9481863E-4,2E0,3.372561E-4,1E0,1.20567E0,4E0,1.22745E0,5.2132007E-5,8.314683E-6,4.410979E-5,9.137751E-5,1E0,1.2396E0,1.7E1,1.23597E0,1E0,1.21E2,1.23884E0,3.6E1,-8.304588E-6,3E0,6E0,1.643389E-5,5.0008297E-4,1.5666E5,1.22672E0,1.22985E0,1.20118E0,1.0669691E-4,5E0,2.9993057E-4,3.6E2,1.20612E0,1.2385E0,5.3E1,1E0,1.20932E0,1.4501941E-4,1E0,3.3478605E-5,1.23838E0,6.422631E-5,1E0,2.343577E-5,1.21007E0,1.24923E0,2.799034E-4,1.2814434E-3,1.42E2,2.5830677E-1,6.3569125E-5,-7.245098E-6,-5.246682E-6,-7.3042793E-6,-5.6105764E-6,-4.9070545E-6,-1.6539803E-6,-8.511062E-6,8.304128E-6,-9.6100885E-6,-8.830334E-6,-5.743649E-6,1.152952E-4,-2.1171236E-5,-5.211456E-6,-6.363809E-6,-4.994179E-6,-4.290409E-6,-2.4166989E-6,-4.6760197E-6,-2.5263753E-6,-1.9404874E-6,9.865794E-7,-3.2929695E-6,-1.0310098E-5,-1.98812E-6,2.2654481E-7,8.474865E-8,4.8619772E-6,2.3292548E-6,7.0552956E-6,-3.3500455E-6,1.5988218E-6,2.1364701E-6,6.5731892E-6,4.9165506E-6,8.079752E-6,1.0014882E-5,1.672595E-5,3.5149105E-6,8.716677E-6,1.2272664E-5,1.8720299E-5,1.0993592E-5,1.653904E-5,1.5092467E-5,2.360587E-5,-5.2230376E-7,1.1416894E-5,9.751055E-6,2.0337717E-5,2.1945314E-5,3.8992104E-5,3.2106014E-5,5.6559034E-5,2.9186363E-5,4.621266E-5,3.6393212E-5,5.530645E-5,8.9825866E-5,4.8277147E-5,7.372108E-5,1.1628654E-4],"split_indices":[27,27,26,20,27,26,27,8,20,2,18,18,27,4,25,32,6,31,0,26,25,26,26,32,12,18,6,32,18,6,4,0,19,30,28,13,20,0,9,3,27,30,15,20,8,11,19,19,11,26,32,25,1,25,32,25,8,10,13,27,19,29,16,0,0,0,0,0,0,0,0,0,0,0,0,0,0,0,0,0,0,0,0,0,0,0,0,0,0,0,0,0,0,0,0,0,0,0,0,0,0,0,0,0,0,0,0,0,0,0,0,0,0,0,0,0,0,0,0,0,0,0,0,0,0],"split_type":[0,0,0,0,0,0,0,0,0,0,0,0,0,0,0,0,0,0,0,0,0,0,0,0,0,0,0,0,0,0,0,0,0,0,0,0,0,0,0,0,0,0,0,0,0,0,0,0,0,0,0,0,0,0,0,0,0,0,0,0,0,0,0,0,0,0,0,0,0,0,0,0,0,0,0,0,0,0,0,0,0,0,0,0,0,0,0,0,0,0,0,0,0,0,0,0,0,0,0,0,0,0,0,0,0,0,0,0,0,0,0,0,0,0,0,0,0,0,0,0,0,0,0,0,0],"sum_hessian":[1.263168E7,8.359922E6,4.271758E6,4.953647E6,3.406275E6,3.54192E6,7.29838E5,1.149924E6,3.803723E6,1.459777E6,1.946498E6,2.381966E6,1.159954E6,4.39622E5,2.90216E5,5.99453E5,5.50471E5,3.768888E6,3.4835E4,8.84506E5,5.75271E5,8.81571E5,1.064927E6,8.1979E5,1.562176E6,6.54835E5,5.05119E5,1.3756E5,3.02062E5,2.48904E5,4.1312E4,2.92942E5,3.06511E5,4.10617E5,1.39854E5,2.46529E5,3.522359E6,1.0888E4,2.3947E4,4.9783E5,3.86676E5,1.83888E5,3.91383E5,1.2686E5,7.54711E5,5.04382E5,5.60545E5,4.34969E5,3.84821E5,1.440433E6,1.21743E5,3.2419E5,3.30645E5,3.65173E5,1.39946E5,6.5015E4,7.2545E4,2.8273E5,1.9332E4,1.63313E5,8.5591E4,3.2993E4,8.319E3,2.74304E5,3.2207E4,1.41123E5,2.69494E5,1.1201E5,2.7844E4,2.45667E5,8.62E2,3.34918E6,1.73179E5,1.0193E4,6.95E2,1.954E3,2.1993E4,1.73582E5,3.24248E5,2.67149E5,1.19527E5,6.8928E4,1.1496E5,2.99932E5,9.1451E4,1.17691E5,9.169E3,2.81459E5,4.73252E5,4.83031E5,2.1351E4,5.22259E5,3.8286E4,7.911E4,3.55859E5,1.8351E5,2.01311E5,7.8144E5,6.58993E5,6.5055E4,5.6688E4,7.5024E4,2.49166E5,2.88266E5,4.2379E4,9.7443E4,2.6773E5,3.9381E4,1.00565E5,9.734E3,5.5281E4,1.2196E4,6.0349E4,2.72083E5,1.0647E4,1.4132E4,5.2E3,1.50072E5,1.3241E4,5.8166E4,2.7425E4,3.018E3,2.9975E4,4.907E3,3.412E3],"tree_param":{"num_deleted":"0","num_feature":"35","num_nodes":"125","size_leaf_vector":"1"}},{"base_weights":[3.502753E-10,-1.0679126E-5,3.3925135E-5,-1.8984523E-5,2.2936654E-6,2.5387655E-5,7.1794784E-5,-2.177203E-5,-1.2304926E-5,-2.3156804E-6,7.3949163E-6,2.0486923E-5,4.2655294E-5,6.150581E-5,1.1765654E-4,-2.1880564E-5,-9.002851E-6,-1.4704923E-5,-7.805098E-6,-7.371814E-6,-1.9342866E-7,4.628138E-6,1.3354831E-5,1.2371042E-5,2.5851994E-5,3.964497E-5,6.8263165E-5,3.895314E-5,7.0173E-5,1.1429068E-4,4.900179E-4,-1.9257432E-5,-6.7256856E-6,-2.1854868E-5,-7.024028E-6,-1.66527E-5,-1.2956437E-5,-9.222543E-6,-2.4975693E-6,-1.1477838E-5,-5.0887916E-6,-3.2762323E-6,4.7082845E-6,4.445587E-6,7.02569E-5,1.1210127E-5,2.1949838E-5,3.3457113E-6,1.7555081E-5,2.186919E-5,3.7564823E-5,3.7543934E-5,7.092381E-5,6.173408E-5,1.0611696E-4,3.5464927E-5,1.16759606E-4,5.6633027E-5,8.360894E-5,1.0043174E-4,1.7901039E-4,4.0771533E-4,7.078539E-4,-6.0290718E-6,-3.7169461E-6,3.866746E-6,-4.5622146E-6,-5.3671642E-6,-4.2037973E-6,-4.081827E-6,-2.4552085E-6,-3.50922E-6,-2.1516646E-6,-1.0354371E-6,6.859991E-6,-2.933679E-6,-6.3743973E-6,-4.7267613E-6,-1.2691745E-6,-1.7904956E-6,3.3441114E-7,1.3933355E-6,8.982304E-5,-6.455363E-7,1.8756027E-6,1.721763E-5,3.5046937E-4,3.1923157E-6,9.498319E-6,6.4060873E-6,2.4495126E-5,1.7573112E-7,6.891423E-6,4.5972547E-6,1.0496979E-5,6.223861E-6,1.3511067E-5,9.756903E-6,1.4473534E-5,9.2231485E-6,1.3327224E-5,1.8251098E-5,2.8540646E-5,1.6988119E-5,2.441096E-5,2.5207419E-5,6.253651E-5,8.146701E-6,1.9349103E-5,7.826772E-4,3.029645E-5,1.1633654E-5,1.9156669E-5,2.3148097E-5,3.7765094E-5,2.6006397E-5,4.6428086E-5,3.8160906E-5,6.577719E-5,7.720932E-5,1.6954822E-4,9.84522E-5,2.3768193E-4],"categories":[],"categories_nodes":[],"categories_segments":[],"categories_sizes":[],"default_left":[0,0,0,0,0,0,0,0,0,0,0,0,0,0,0,0,0,0,0,0,0,0,0,0,0,0,0,0,0,0,0,0,0,0,0,0,0,0,0,0,0,0,0,0,0,0,0,0,0,0,0,0,0,0,0,0,0,0,0,0,0,0,0,0,0,0,0,0,0,0,0,0,0,0,0,0,0,0,0,0,0,0,0,0,0,0,0,0,0,0,0,0,0,0,0,0,0,0,0,0,0,0,0,0,0,0,0,0,0,0,0,0,0,0,0,0,0,0,0,0,0,0,0],"id":4,"left_children":[1,3,5,7,9,11,13,15,17,19,21,23,25,27,29,31,33,35,37,39,41,43,45,47,49,51,53,55,57,59,61,63,-1,-1,65,67,69,71,73,75,77,79,81,83,85,87,89,91,93,95,97,99,101,103,105,107,109,111,113,115,117,119,121,-1,-1,-1,-1,-1,-1,-1,-1,-1,-1,-1,-1,-1,-1,-1,-1,-1,-1,-1,-1,-1,-1,-1,-1,-1,-1,-1,-1,-1,-1,-1,-1,-1,-1,-1,-1,-1,-1,-1,-1,-1,-1,-1,-1,-1,-1,-1,-1,-1,-1,-1,-1,-1,-1,-1,-1,-1,-1,-1,-1],"loss_changes":[4.5764446E-3,1.035132E-3,9.778112E-4,1.0905997E-4,8.817467E-5,2.0884967E-4,2.625368E-4,5.727168E-6,1.8625346E-5,2.1138498E-5,2.9351788E-5,8.370477E-5,4.205585E-5,8.8826055E-5,1.27721E-4,5.7870056E-6,4.400209E-6,3.8303115E-6,4.5130582E-6,5.459533E-6,2.0967416E-5,1.4564033E-5,1.0402771E-5,3.579547E-5,5.3988362E-5,3.2081036E-5,1.4177174E-5,3.4237208E-5,5.9716287E-5,9.0608606E-5,1.608007E-5,4.0229643E-6,0E0,0E0,5.505847E-6,1.7384737E-6,1.8374994E-6,2.4023393E-6,3.0593155E-6,3.45419E-6,3.4264713E-6,1.00692405E-5,1.00766665E-5,1.444764E-5,4.756322E-5,5.25601E-6,4.0096565E-6,1.51187905E-5,1.8900391E-5,2.2468885E-5,1.581214E-5,2.1402026E-5,7.498573E-6,4.90401E-6,1.9066538E-5,2.9127623E-5,2.1249459E-4,2.1082407E-5,4.4908724E-5,6.212591E-5,3.71263E-5,1.5596474E-5,7.721013E-6,0E0,0E0,0E0,0E0,0E0,0E0,0E0,0E0,0E0,0E0,0E0,0E0,0E0,0E0,0E0,0E0,0E0,0E0,0E0,0E0,0E0,0E0,0E0,0E0,0E0,0E0,0E0,0E0,0E0,0E0,0E0,0E0,0E0,0E0,0E0,0E0,0E0,0E0,0E0,0E0,0E0,0E0,0E0,0E0,0E0,0E0,0E0,0E0,0E0,0E0,0E0,0E0,0E0,0E0,0E0,0E0,0E0,0E0,0E0,0E0],"parents":[2147483647,0,0,1,1,2,2,3,3,4,4,5,5,6,6,7,7,8,8,9,9,10,10,11,11,12,12,13,13,14,14,15,15,16,16,17,17,18,18,19,19,20,20,21,21,22,22,23,23,24,24,25,25,26,26,27,27,28,28,29,29,30,30,31,31,34,34,35,35,36,36,37,37,38,38,39,39,40,40,41,41,42,42,43,43,44,44,45,45,46,46,47,47,48,48,49,49,50,50,51,51,52,52,53,53,54,54,55,55,56,56,57,57,58,58,59,59,60,60,61,61,62,62],"right_children":[2,4,6,8,10,12,14,16,18,20,22,24,26,28,30,32,34,36,38,40,42,44,46,48,50,52,54,56,58,60,62,64,-1,-1,66,68,70,72,74,76,78,80,82,84,86,88,90,92,94,96,98,100,102,104,106,108,110,112,114,116,118,120,122,-1,-1,-1,-1,-1,-1,-1,-1,-1,-1,-1,-1,-1,-1,-1,-1,-1,-1,-1,-1,-1,-1,-1,-1,-1,-1,-1,-1,-1,-1,-1,-1,-1,-1,-1,-1,-1,-1,-1,-1,-1,-1,-1,-1,-1,-1,-1,-1,-1,-1,-1,-1,-1,-1,-1,-1,-1,-1,-1,-1],"split_conditions":[2.616067E-4,1.0020933E-4,5.7470874E-4,1.17917825E-5,9.454335E-5,7.1E1,1.81E2,1.68945E5,1.20398E0,1.2062E0,2E0,1E0,2E1,1E0,9.300709E-4,5.445E3,1.2055E0,1.20099E0,2.9993057E-4,1.20206E0,1E0,1.0100603E-3,8.866353E-5,3.724324E-5,4.0892613E-4,1.24392E0,3.8726914E-5,2.4020781E-4,3.755759E-4,7.851226E-4,1E0,6E0,-6.7256856E-6,-2.1854868E-5,1.22745E0,1E0,2.9112254E-5,6E0,1.23796E0,1.5527743E-4,3.0316294E-5,2.8750103E-4,1.0000467E-3,2.285172E-5,2.3E1,1.24074E0,7.799864E-4,1.23911E0,4.9999356E-4,1.24092E0,1.23444E0,4.0892613E-4,3E0,1.97E2,1E0,9.3E1,1.634443E-4,1.2276E0,1.0609748E-3,1.24117E0,1.2814434E-3,2.2E1,1.2E1,-6.0290718E-6,-3.7169461E-6,3.866746E-6,-4.5622146E-6,-5.3671642E-6,-4.2037973E-6,-4.081827E-6,-2.4552085E-6,-3.50922E-6,-2.1516646E-6,-1.0354371E-6,6.859991E-6,-2.933679E-6,-6.3743973E-6,-4.7267613E-6,-1.2691745E-6,-1.7904956E-6,3.3441114E-7,1.3933355E-6,8.982304E-5,-6.455363E-7,1.8756027E-6,1.721763E-5,3.5046937E-4,3.1923157E-6,9.498319E-6,6.4060873E-6,2.4495126E-5,1.7573112E-7,6.891423E-6,4.5972547E-6,1.0496979E-5,6.223861E-6,1.3511067E-5,9.756903E-6,1.4473534E-5,9.2231485E-6,1.3327224E-5,1.8251098E-5,2.8540646E-5,1.6988119E-5,2.441096E-5,2.5207419E-5,6.253651E-5,8.146701E-6,1.9349103E-5,7.826772E-4,3.029645E-5,1.1633654E-5,1.9156669E-5,2.3148097E-5,3.7765094E-5,2.6006397E-5,4.6428086E-5,3.8160906E-5,6.577719E-5,7.720932E-5,1.6954822E-4,9.84522E-5,2.3768193E-4],"split_indices":[27,27,27,26,26,19,19,20,2,5,4,32,4,32,13,20,10,6,15,10,32,14,25,25,27,6,16,16,26,26,32,31,0,0,0,18,25,30,0,27,26,15,14,25,30,8,13,10,14,2,1,27,31,19,33,19,26,1,27,8,27,30,30,0,0,0,0,0,0,0,0,0,0,0,0,0,0,0,0,0,0,0,0,0,0,0,0,0,0,0,0,0,0,0,0,0,0,0,0,0,0,0,0,0,0,0,0,0,0,0,0,0,0,0,0,0,0,0,0,0,0,0,0],"split_type":[0,0,0,0,0,0,0,0,0,0,0,0,0,0,0,0,0,0,0,0,0,0,0,0,0,0,0,0,0,0,0,0,0,0,0,0,0,0,0,0,0,0,0,0,0,0,0,0,0,0,0,0,0,0,0,0,0,0,0,0,0,0,0,0,0,0,0,0,0,0,0,0,0,0,0,0,0,0,0,0,0,0,0,0,0,0,0,0,0,0,0,0,0,0,0,0,0,0,0,0,0,0,0,0,0,0,0,0,0,0,0,0,0,0,0,0,0,0,0,0,0,0,0],"sum_hessian":[1.263168E7,9.607312E6,3.024368E6,5.857343E6,3.749969E6,2.467979E6,5.56389E5,4.132697E6,1.724646E6,1.969965E6,1.780004E6,1.922388E6,5.45591E5,4.54439E5,1.0195E5,4.097866E6,3.4831E4,1.124753E6,5.99893E5,5.82409E5,1.387556E6,1.215659E6,5.64345E5,7.65062E5,1.157326E6,4.88203E5,5.7388E4,1.26162E5,3.28277E5,1.01038E5,9.12E2,6.97849E5,3.400017E6,1.046E3,3.3785E4,5.32051E5,5.92702E5,4.73451E5,1.26442E5,2.08113E5,3.74296E5,8.51824E5,5.35732E5,1.212288E6,3.371E3,4.51648E5,1.12697E5,2.7912E5,4.85942E5,8.63654E5,2.93672E5,4.57476E5,3.0727E4,4.8948E4,8.44E3,1.2075E5,5.412E3,1.63508E5,1.64769E5,8.322E4,1.7818E4,6.64E2,2.48E2,6.21836E5,7.6013E4,9.84E3,2.3945E4,3.62213E5,1.69838E5,5.21685E5,7.1017E4,2.14515E5,2.58936E5,1.2186E5,4.582E3,1.77287E5,3.0826E4,2.787E4,3.46426E5,5.28066E5,3.23758E5,5.35617E5,1.15E2,2.60585E5,9.51703E5,3.333E3,3.8E1,4.39422E5,1.2226E4,1.11584E5,1.113E3,2.44708E5,3.4412E4,4.30818E5,5.5124E4,8.23728E5,3.9926E4,1.99499E5,9.4173E4,2.30079E5,2.27397E5,2.1693E4,9.034E3,3.8848E4,1.01E4,6.943E3,1.497E3,9.3882E4,2.6868E4,3.3E1,5.379E3,4.7095E4,1.16413E5,1.42964E5,2.1805E4,6.642E4,1.68E4,7.792E3,1.0026E4,3.41E2,3.23E2,4.6E1,2.02E2],"tree_param":{"num_deleted":"0","num_feature":"35","num_nodes":"123","size_leaf_vector":"1"}},{"base_weights":[4.34862E-10,-7.5371927E-6,2.4009494E-5,-1.3701296E-5,1.2032652E-6,1.8394356E-5,5.409729E-5,-9.117077E-6,-1.5324638E-5,-4.921367E-6,3.7084312E-6,1.15194725E-5,2.569885E-5,4.7245438E-5,9.5024516E-5,-1.06498155E-5,-5.6605036E-6,-1.5333371E-5,7.359884E-5,-6.494702E-6,-1.1712171E-7,4.573197E-7,7.474685E-6,7.172111E-6,1.687673E-5,2.2202852E-5,3.915028E-5,3.0412088E-5,5.486582E-5,8.861569E-5,2.1334155E-4,-4.2225392E-6,-9.799007E-6,-6.192331E-6,7.3897877E-6,-1.531552E-5,-2.1832664E-5,4.9548445E-4,-9.02488E-6,-7.994399E-6,-4.4254484E-6,-2.7493243E-6,3.4177651E-6,-2.5915879E-6,5.610508E-6,2.9503612E-6,1.0224395E-5,5.7830234E-6,2.2793234E-5,1.3146308E-5,2.3406312E-5,1.9815188E-5,3.3106156E-5,3.731322E-5,7.573884E-5,3.5400728E-5,3.7915934E-6,4.728861E-5,7.137128E-5,4.9299106E-5,1.0664504E-4,2.249713E-3,1.7169646E-4,-3.4826567E-6,-2.530033E-6,-2.8676775E-6,-1.2973918E-6,2.0883342E-6,7.1139E-5,-3.8975872E-6,-4.691786E-6,-2.6485224E-5,3.0952145E-4,2.9380637E-4,-2.100243E-5,-3.4227776E-6,-2.0618402E-6,-1.0368365E-6,-2.4361975E-6,9.199238E-7,2.2159848E-5,-1.6643002E-6,6.837943E-8,1.3961137E-6,8.838381E-6,-8.5027574E-7,1.3441816E-6,3.5282517E-6,1.0376879E-6,9.8759074E-8,2.9209302E-6,1.4430012E-4,6.763344E-6,5.283171E-6,2.3101497E-6,6.068175E-6,9.506324E-6,5.4156253E-6,1.0281707E-5,8.916992E-6,1.5010082E-5,9.96539E-6,1.5852655E-5,1.7781667E-5,3.713629E-5,1.0346423E-5,5.4532848E-5,2.8950237E-6,-3.737079E-5,1.2590896E-5,1.9285031E-5,1.7937518E-5,2.6239673E-5,1.8432564E-5,-7.93325E-6,2.4796793E-5,4.3283915E-5,1.1085559E-3,-5.675861E-5,8.296262E-5,2.835423E-5],"categories":[],"categories_nodes":[],"categories_segments":[],"categories_sizes":[],"default_left":[0,0,0,0,0,0,0,0,0,0,0,0,0,0,0,0,0,0,0,0,0,0,0,0,0,0,0,0,0,0,0,0,0,0,0,0,0,0,0,0,0,0,0,0,0,0,0,0,0,0,0,0,0,0,0,0,0,0,0,0,0,0,0,0,0,0,0,0,0,0,0,0,0,0,0,0,0,0,0,0,0,0,0,0,0,0,0,0,0,0,0,0,0,0,0,0,0,0,0,0,0,0,0,0,0,0,0,0,0,0,0,0,0,0,0,0,0,0,0,0,0],"id":5,"left_children":[1,3,5,7,9,11,13,15,17,19,21,23,25,27,29,31,33,35,37,39,41,43,45,47,49,51,53,55,57,59,61,-1,63,65,67,69,-1,71,73,75,77,-1,79,81,83,85,87,89,91,93,95,97,99,101,103,105,107,109,111,113,115,117,119,-1,-1,-1,-1,-1,-1,-1,-1,-1,-1,-1,-1,-1,-1,-1,-1,-1,-1,-1,-1,-1,-1,-1,-1,-1,-1,-1,-1,-1,-1,-1,-1,-1,-1,-1,-1,-1,-1,-1,-1,-1,-1,-1,-1,-1,-1,-1,-1,-1,-1,-1,-1,-1,-1,-1,-1,-1,-1],"loss_changes":[2.2859725E-3,5.179486E-4,5.099084E-4,4.195387E-5,6.1002836E-5,1.2772722E-4,1.33108E-4,7.810857E-6,3.2342505E-6,8.724004E-6,3.4550492E-5,3.051608E-5,5.7992234E-5,5.215645E-5,5.159754E-5,2.9764851E-6,3.1435047E-6,4.2674365E-6,1.4261295E-5,2.6980451E-6,9.10609E-6,2.3794095E-5,1.6263366E-5,1.5695157E-5,1.4296951E-5,2.5481364E-5,1.7096114E-5,1.6827093E-5,3.500207E-5,4.57688E-5,2.9617635E-4,0E0,2.021974E-6,2.7362712E-6,1.7449574E-6,3.130699E-6,0E0,2.1065302E-5,2.0742735E-5,1.93065E-6,1.3085923E-6,0E0,5.0675208E-6,7.930331E-6,1.2846514E-5,4.3744108E-6,8.4519925E-6,1.4322015E-5,6.7216533E-6,9.081457E-6,5.617876E-6,2.0466978E-5,1.0067597E-5,1.540297E-5,9.614458E-6,1.4249497E-5,1.5040458E-5,1.7338141E-5,1.6406615E-5,1.867588E-5,3.9957813E-5,2.474755E-4,2.7714035E-5,0E0,0E0,0E0,0E0,0E0,0E0,0E0,0E0,0E0,0E0,0E0,0E0,0E0,0E0,0E0,0E0,0E0,0E0,0E0,0E0,0E0,0E0,0E0,0E0,0E0,0E0,0E0,0E0,0E0,0E0,0E0,0E0,0E0,0E0,0E0,0E0,0E0,0E0,0E0,0E0,0E0,0E0,0E0,0E0,0E0,0E0,0E0,0E0,0E0,0E0,0E0,0E0,0E0,0E0,0E0,0E0,0E0,0E0],"parents":[2147483647,0,0,1,1,2,2,3,3,4,4,5,5,6,6,7,7,8,8,9,9,10,10,11,11,12,12,13,13,14,14,15,15,16,16,17,17,18,18,19,19,20,20,21,21,22,22,23,23,24,24,25,25,26,26,27,27,28,28,29,29,30,30,32,32,33,33,34,34,35,35,37,37,38,38,39,39,40,40,42,42,43,43,44,44,45,45,46,46,47,47,48,48,49,49,50,50,51,51,52,52,53,53,54,54,55,55,56,56,57,57,58,58,59,59,60,60,61,61,62,62],"right_children":[2,4,6,8,10,12,14,16,18,20,22,24,26,28,30,32,34,36,38,40,42,44,46,48,50,52,54,56,58,60,62,-1,64,66,68,70,-1,72,74,76,78,-1,80,82,84,86,88,90,92,94,96,98,100,102,104,106,108,110,112,114,116,118,120,-1,-1,-1,-1,-1,-1,-1,-1,-1,-1,-1,-1,-1,-1,-1,-1,-1,-1,-1,-1,-1,-1,-1,-1,-1,-1,-1,-1,-1,-1,-1,-1,-1,-1,-1,-1,-1,-1,-1,-1,-1,-1,-1,-1,-1,-1,-1,-1,-1,-1,-1,-1,-1,-1,-1,-1,-1,-1],"split_conditions":[1.414691E-4,4.410979E-5,6.0099235E-4,2.5E2,1.20674E0,3.4534643E-4,1.0609748E-3,1.20575E0,9.4964355E-4,2.0666917E-4,1E0,7.113751E-5,5E1,3E0,2.4020781E-4,5E0,1.23756E0,6.508749E-4,1.0609748E-3,2.4047888E-5,1.20181E0,2.991458E-4,1.7910957E-4,1.2379E0,2.6844904E-10,6.250672E-10,3.2E1,2.1E1,2.0627675E-4,6E0,3.0002714E-4,-4.2225392E-6,1.20097E0,5E0,1.0299683E-3,4E0,-2.1832664E-5,5E0,1.20774E0,1E0,1.6E1,-2.7493243E-6,4.4694394E-4,5E0,8.4996223E-4,1.6999444E-4,1.6E1,1E0,1.23758E0,1E0,1.306462E-4,1.24224E0,1.6939334E-4,1.23705E0,3.237199E-5,1.5000105E-3,9E1,1.24149E0,5.30349E-4,8.9934736E-5,7.851226E-4,1.22528E0,1.23198E0,-3.4826567E-6,-2.530033E-6,-2.8676775E-6,-1.2973918E-6,2.0883342E-6,7.1139E-5,-3.8975872E-6,-4.691786E-6,-2.6485224E-5,3.0952145E-4,2.9380637E-4,-2.100243E-5,-3.4227776E-6,-2.0618402E-6,-1.0368365E-6,-2.4361975E-6,9.199238E-7,2.2159848E-5,-1.6643002E-6,6.837943E-8,1.3961137E-6,8.838381E-6,-8.5027574E-7,1.3441816E-6,3.5282517E-6,1.0376879E-6,9.8759074E-8,2.9209302E-6,1.4430012E-4,6.763344E-6,5.283171E-6,2.3101497E-6,6.068175E-6,9.506324E-6,5.4156253E-6,1.0281707E-5,8.916992E-6,1.5010082E-5,9.96539E-6,1.5852655E-5,1.7781667E-5,3.713629E-5,1.0346423E-5,5.4532848E-5,2.8950237E-6,-3.737079E-5,1.2590896E-5,1.9285031E-5,1.7937518E-5,2.6239673E-5,1.8432564E-5,-7.93325E-6,2.4796793E-5,4.3283915E-5,1.1085559E-3,-5.675861E-5,8.296262E-5,2.835423E-5],"split_indices":[26,26,27,20,1,27,27,1,27,14,32,25,18,4,16,30,2,27,27,28,12,14,27,11,24,24,4,30,25,4,26,0,7,30,13,31,0,31,0,32,30,0,27,30,15,15,30,32,1,34,25,9,25,3,16,15,20,2,26,16,26,0,7,0,0,0,0,0,0,0,0,0,0,0,0,0,0,0,0,0,0,0,0,0,0,0,0,0,0,0,0,0,0,0,0,0,0,0,0,0,0,0,0,0,0,0,0,0,0,0,0,0,0,0,0,0,0,0,0,0,0],"split_type":[0,0,0,0,0,0,0,0,0,0,0,0,0,0,0,0,0,0,0,0,0,0,0,0,0,0,0,0,0,0,0,0,0,0,0,0,0,0,0,0,0,0,0,0,0,0,0,0,0,0,0,0,0,0,0,0,0,0,0,0,0,0,0,0,0,0,0,0,0,0,0,0,0,0,0,0,0,0,0,0,0,0,0,0,0,0,0,0,0,0,0,0,0,0,0,0,0,0,0,0,0,0,0,0,0,0,0,0,0,0,0,0,0,0,0,0,0,0,0,0,0],"sum_hessian":[1.263168E7,9.613522E6,3.018158E6,5.637642E6,3.97588E6,2.543482E6,4.74676E5,1.474304E6,4.163338E6,1.154168E6,2.821712E6,1.310274E6,1.233208E6,4.06606E5,6.807E4,1.02139E6,4.52914E5,4.16293E6,4.08E2,8.69437E5,2.84731E5,1.514427E6,1.307285E6,7.23314E5,5.8696E5,9.78818E5,2.5439E5,1.2671E5,2.79896E5,6.4574E4,3.496E3,2.0322E5,8.1817E5,4.3518E5,1.7734E4,4.161638E6,1.292E3,6.6E1,3.42E2,5.04092E5,3.65345E5,7.9993E4,2.04738E5,9.5148E5,5.62947E5,4.94177E5,8.13108E5,6.64248E5,5.9066E4,3.7355E5,2.1341E5,8.0298E5,1.75838E5,2.4223E5,1.216E4,1.06712E5,1.9998E4,1.91834E5,8.8062E4,2.0303E4,4.4271E4,6.9E1,3.427E3,3.51845E5,4.66325E5,1.55279E5,2.79901E5,1.7702E4,3.2E1,5.08972E5,3.652666E6,3.2E1,3.4E1,1.9E1,3.23E2,1.2463E5,3.79462E5,2.89425E5,7.592E4,2.03723E5,1.015E3,4.64491E5,4.86989E5,5.41236E5,2.1711E4,1.0338E5,3.90797E5,6.62624E5,1.50484E5,2.79152E5,3.85096E5,3.1E1,5.9035E4,2.05273E5,1.68277E5,1.54214E5,5.9196E4,7.157E5,8.728E4,1.46553E5,2.9285E4,1.91683E5,5.0547E4,9.058E3,3.102E3,1.06052E5,6.6E2,1.9126E4,8.72E2,1.46109E5,4.5725E4,5.1217E4,3.6845E4,1.7498E4,2.805E3,2.7039E4,1.7232E4,4.3E1,2.6E1,1.452E3,1.975E3],"tree_param":{"num_deleted":"0","num_feature":"35","num_nodes":"121","size_leaf_vector":"1"}},{"base_weights":[4.8297544E-10,-4.9737346E-6,1.8199009E-5,-9.179807E-6,1.7550448E-6,1.3155926E-5,3.6056837E-5,-1.0653386E-5,-5.687402E-6,2.3449127E-7,7.5031317E-6,7.928059E-6,1.7906099E-5,3.2141597E-5,7.7494034E-5,-1.07273745E-5,-1.6083616E-6,-7.828189E-6,-4.555291E-6,-6.3159036E-6,1.0005631E-6,6.499724E-6,1.8917388E-5,3.1810775E-6,1.1572236E-5,1.3259029E-5,2.3027249E-5,2.4519906E-5,4.3005373E-5,6.809454E-5,2.0262599E-4,-8.099391E-6,-3.2623668E-6,9.653787E-6,-1.1289202E-5,-1.01405585E-5,-6.4446926E-6,-4.7943645E-6,6.0962498E-6,-4.8235656E-6,-1.3414012E-5,1.11279626E-7,6.576158E-6,1.9977164E-5,5.8553665E-6,1.7010081E-5,4.1091167E-5,4.445462E-6,-1.756503E-5,2.820128E-6,1.5066779E-5,2.7258166E-6,1.4702365E-5,2.136856E-5,4.2439286E-5,-1.6282816E-5,2.693233E-5,4.124605E-5,1.1767935E-4,7.4004335E-4,6.6829474E-5,1.3627166E-4,3.3560864E-4,-2.4518663E-6,2.3768569E-5,1.8551784E-6,8.243041E-5,-4.3865093E-6,1.9845933E-5,-3.0524136E-6,5.0419363E-5,-1.9482752E-6,9.363026E-5,-2.1104142E-6,-1.1614662E-6,-1.3988683E-5,2.2022843E-6,-2.2250047E-6,-9.670821E-7,-7.4836557E-6,-3.436199E-6,-1.0055103E-7,3.4984025E-6,1.0737346E-6,3.254856E-6,5.0351823E-6,1.5507661E-5,1.4264658E-6,4.170668E-6,4.5167785E-6,1.1353974E-5,1.1329907E-5,6.719379E-5,1.1012754E-6,1.4597345E-5,-8.870565E-6,1.7107603E-6,-4.8787297E-6,1.1868485E-6,7.910075E-6,3.7455513E-6,3.1312217E-7,9.694331E-6,5.286975E-6,2.8813915E-6,6.311841E-6,3.0109784E-5,6.3715365E-6,1.7328512E-5,-1.9214337E-6,-1.7127906E-5,6.723098E-6,1.1765976E-5,1.0907301E-5,1.8014722E-5,9.6143274E-5,3.2158292E-5,5.4739165E-4,1.4426369E-4,9.428254E-6,2.6078127E-5,2.4843941E-5,1.0315583E-4,8.125773E-5,1.3754348E-4],"categories":[],"categories_nodes":[],"categories_segments":[],"categories_sizes":[],"default_left":[0,0,0,0,0,0,0,0,0,0,0,0,0,0,0,0,0,0,0,0,0,0,0,0,0,0,0,0,0,0,0,0,0,0,0,0,0,0,0,0,0,0,0,0,0,0,0,0,0,0,0,0,0,0,0,0,0,0,0,0,0,0,0,0,0,0,0,0,0,0,0,0,0,0,0,0,0,0,0,0,0,0,0,0,0,0,0,0,0,0,0,0,0,0,0,0,0,0,0,0,0,0,0,0,0,0,0,0,0,0,0,0,0,0,0,0,0,0,0,0,0,0,0,0,0],"id":6,"left_children":[1,3,5,7,9,11,13,15,17,19,21,23,25,27,29,31,33,35,37,39,41,43,45,47,49,51,53,55,57,59,61,63,-1,65,67,69,71,73,75,77,79,81,83,85,87,89,91,93,95,97,99,101,103,105,107,109,111,113,115,117,119,121,123,-1,-1,-1,-1,-1,-1,-1,-1,-1,-1,-1,-1,-1,-1,-1,-1,-1,-1,-1,-1,-1,-1,-1,-1,-1,-1,-1,-1,-1,-1,-1,-1,-1,-1,-1,-1,-1,-1,-1,-1,-1,-1,-1,-1,-1,-1,-1,-1,-1,-1,-1,-1,-1,-1,-1,-1,-1,-1,-1,-1,-1,-1],"loss_changes":[1.1434632E-3,2.8075854E-4,2.4419255E-4,3.1415257E-5,3.3351003E-5,5.2507035E-5,9.6869946E-5,2.8729846E-6,4.3900654E-6,1.5142282E-5,9.142223E-6,1.7412684E-5,2.6363647E-5,4.5171473E-5,6.0614635E-5,1.6469276E-6,3.7978486E-6,2.0044208E-6,3.017185E-6,3.346755E-6,1.3395282E-5,6.3718726E-6,2.7271908E-6,1.1466928E-5,1.7415943E-5,8.829658E-6,1.6968319E-5,3.1560587E-5,2.9546354E-5,4.0708328E-5,3.172939E-5,1.4501256E-6,0E0,1.4810676E-5,4.8352495E-6,1.4292364E-6,6.1906685E-6,2.395729E-6,1.7072988E-6,1.0831118E-6,1.2402661E-6,1.2014575E-5,4.7594785E-6,3.3896558E-6,6.201026E-6,2.417817E-6,3.097557E-6,1.4109785E-5,7.013765E-6,3.522548E-6,1.18714015E-5,3.4835896E-6,7.6055003E-6,1.26204395E-5,1.3475423E-5,7.215164E-6,1.6819948E-5,2.0197418E-5,1.0973767E-5,2.442054E-5,3.404799E-5,2.6648664E-5,9.406824E-6,0E0,0E0,0E0,0E0,0E0,0E0,0E0,0E0,0E0,0E0,0E0,0E0,0E0,0E0,0E0,0E0,0E0,0E0,0E0,0E0,0E0,0E0,0E0,0E0,0E0,0E0,0E0,0E0,0E0,0E0,0E0,0E0,0E0,0E0,0E0,0E0,0E0,0E0,0E0,0E0,0E0,0E0,0E0,0E0,0E0,0E0,0E0,0E0,0E0,0E0,0E0,0E0,0E0,0E0,0E0,0E0,0E0,0E0,0E0,0E0,0E0,0E0],"parents":[2147483647,0,0,1,1,2,2,3,3,4,4,5,5,6,6,7,7,8,8,9,9,10,10,11,11,12,12,13,13,14,14,15,15,16,16,17,17,18,18,19,19,20,20,21,21,22,22,23,23,24,24,25,25,26,26,27,27,28,28,29,29,30,30,31,31,33,33,34,34,35,35,36,36,37,37,38,38,39,39,40,40,41,41,42,42,43,43,44,44,45,45,46,46,47,47,48,48,49,49,50,50,51,51,52,52,53,53,54,54,55,55,56,56,57,57,58,58,59,59,60,60,61,61,62,62],"right_children":[2,4,6,8,10,12,14,16,18,20,22,24,26,28,30,32,34,36,38,40,42,44,46,48,50,52,54,56,58,60,62,64,-1,66,68,70,72,74,76,78,80,82,84,86,88,90,92,94,96,98,100,102,104,106,108,110,112,114,116,118,120,122,124,-1,-1,-1,-1,-1,-1,-1,-1,-1,-1,-1,-1,-1,-1,-1,-1,-1,-1,-1,-1,-1,-1,-1,-1,-1,-1,-1,-1,-1,-1,-1,-1,-1,-1,-1,-1,-1,-1,-1,-1,-1,-1,-1,-1,-1,-1,-1,-1,-1,-1,-1,-1,-1,-1,-1,-1,-1,-1,-1,-1,-1,-1],"split_conditions":[2.8042647E-4,5.3869957E-5,3.2481423E-4,4.3316577E-5,1.4E1,2E0,2.52E2,1.68945E5,1.20119E0,1.20206E0,3.7833015E-5,1E0,2.1720724E-4,2.780645E-10,4.7004223E-4,1.6999444E-4,1.0199547E-3,1E0,1.23756E0,1.5527743E-4,2.6766886E-10,7.4870486E-6,1.24255E0,9.5E1,1.21076E0,5E0,1.24392E0,2E0,9.999275E-4,5.980759E-8,1E0,1.587E5,-3.2623668E-6,1.0100603E-3,1.24338E0,1.20222E0,5.233292E-5,5E0,2.1582375E-8,1.20126E0,1.20135E0,1.23837E0,2.1911661E-4,1.2118E0,1E1,1E0,1.0999441E-3,1.0299683E-3,5E0,1.599888E-4,6.010879E-8,4.7085682E-4,1.5E1,9.800196E-4,2E0,8E1,1.2393E0,8.761943E-4,4.6831171E-4,7.851226E-4,1.22937E0,7.70092E-4,4E0,-2.4518663E-6,2.3768569E-5,1.8551784E-6,8.243041E-5,-4.3865093E-6,1.9845933E-5,-3.0524136E-6,5.0419363E-5,-1.9482752E-6,9.363026E-5,-2.1104142E-6,-1.1614662E-6,-1.3988683E-5,2.2022843E-6,-2.2250047E-6,-9.670821E-7,-7.4836557E-6,-3.436199E-6,-1.0055103E-7,3.4984025E-6,1.0737346E-6,3.254856E-6,5.0351823E-6,1.5507661E-5,1.4264658E-6,4.170668E-6,4.5167785E-6,1.1353974E-5,1.1329907E-5,6.719379E-5,1.1012754E-6,1.4597345E-5,-8.870565E-6,1.7107603E-6,-4.8787297E-6,1.1868485E-6,7.910075E-6,3.7455513E-6,3.1312217E-7,9.694331E-6,5.286975E-6,2.8813915E-6,6.311841E-6,3.0109784E-5,6.3715365E-6,1.7328512E-5,-1.9214337E-6,-1.7127906E-5,6.723098E-6,1.1765976E-5,1.0907301E-5,1.8014722E-5,9.6143274E-5,3.2158292E-5,5.4739165E-4,1.4426369E-4,9.428254E-6,2.6078127E-5,2.4843941E-5,1.0315583E-4,8.125773E-5,1.3754348E-4],"split_indices":[27,26,26,27,18,4,19,20,8,10,16,32,26,24,13,15,14,32,2,27,24,16,6,20,2,30,6,18,13,16,32,20,0,13,0,9,25,30,16,12,12,3,14,11,4,33,15,13,31,14,16,14,30,13,31,20,7,27,15,26,10,15,31,0,0,0,0,0,0,0,0,0,0,0,0,0,0,0,0,0,0,0,0,0,0,0,0,0,0,0,0,0,0,0,0,0,0,0,0,0,0,0,0,0,0,0,0,0,0,0,0,0,0,0,0,0,0,0,0,0,0,0,0,0,0],"split_type":[0,0,0,0,0,0,0,0,0,0,0,0,0,0,0,0,0,0,0,0,0,0,0,0,0,0,0,0,0,0,0,0,0,0,0,0,0,0,0,0,0,0,0,0,0,0,0,0,0,0,0,0,0,0,0,0,0,0,0,0,0,0,0,0,0,0,0,0,0,0,0,0,0,0,0,0,0,0,0,0,0,0,0,0,0,0,0,0,0,0,0,0,0,0,0,0,0,0,0,0,0,0,0,0,0,0,0,0,0,0,0,0,0,0,0,0,0,0,0,0,0,0,0,0,0],"sum_hessian":[1.263168E7,9.920188E6,2.711492E6,6.104404E6,3.815784E6,2.114387E6,5.97105E5,4.293015E6,1.811389E6,3.017547E6,7.98237E5,1.006582E6,1.107805E6,5.45559E5,5.1546E4,4.258183E6,3.4832E4,6.26566E5,1.184823E6,3.15952E5,2.701595E6,7.33737E5,6.45E4,4.37147E5,5.69435E5,5.80787E5,5.27018E5,3.20623E5,2.24936E5,4.7946E4,3.6E3,2.25836E5,4.032347E6,1.6101E4,1.8731E4,2.34544E5,3.92022E5,1.158814E6,2.6009E4,2.61066E5,5.4886E4,2.329975E6,3.7162E5,3.3478E4,7.00259E5,5.9393E4,5.107E3,4.12036E5,2.5111E4,1.62487E5,4.06948E5,6.9993E4,5.10794E5,4.85533E5,4.1485E4,1.7898E4,3.02725E5,2.1976E5,5.176E3,8.9E1,4.7857E4,2.403E3,1.197E3,2.25647E5,1.89E2,1.5894E4,2.07E2,1.7959E4,7.72E2,2.345E5,4.4E1,3.91962E5,6E1,3.38067E5,8.20747E5,5.99E2,2.541E4,9.9614E4,1.61452E5,7.972E3,4.6914E4,2.243266E6,8.6709E4,2.1843E5,1.5319E5,3.0417E4,3.061E3,6.16015E5,8.4244E4,5.4302E4,5.091E3,5.017E3,9E1,4.04943E5,7.093E3,1.6565E4,8.546E3,9.129E3,1.53358E5,7.5679E4,3.31269E5,6.6229E4,3.764E3,3.24729E5,1.86065E5,4.8352E5,2.013E3,1.7405E4,2.408E4,1.4411E4,3.487E3,2.2129E5,8.1435E4,1.74418E5,4.5342E4,2.53E2,4.923E3,1.6E1,7.3E1,1.7331E4,3.0526E4,1.912E3,4.91E2,7.86E2,4.11E2],"tree_param":{"num_deleted":"0","num_feature":"35","num_nodes":"125","size_leaf_vector":"1"}},{"base_weights":[4.7194865E-10,-4.6553982E-6,1.0022711E-5,-1.0002653E-6,-7.3186116E-6,5.4415004E-6,2.1132131E-5,-1.352093E-6,1.34022575E-5,-7.273741E-6,-4.456093E-5,4.646428E-6,1.5078325E-5,1.9049616E-5,4.956644E-5,-2.8769368E-6,1.2809807E-6,1.0547613E-5,2.559435E-5,-5.3185004E-6,-7.566252E-6,-7.251796E-5,-1.3575687E-5,-4.163894E-7,6.003478E-6,1.0941554E-5,2.2650474E-5,1.5523028E-5,2.8921728E-5,4.1435094E-5,1.00854726E-4,-3.817628E-6,-1.3996722E-6,-2.5177721E-6,2.5998743E-6,1.1001202E-5,-9.52436E-5,2.7043465E-5,-2.5649953E-5,-5.4255815E-6,2.3237402E-5,-7.5275657E-6,-3.2076605E-5,-2.591253E-5,-1.4724986E-4,-4.0889892E-5,5.417612E-5,-5.0076363E-7,1.3577075E-4,3.1385935E-6,9.050629E-6,1.822805E-5,7.2939274E-6,1.0138211E-5,3.0295896E-5,2.2219513E-6,1.7329277E-5,1.6385742E-5,3.5986162E-5,3.562735E-5,8.865112E-5,5.084287E-4,9.65095E-5,-1.0511175E-6,-2.2500094E-6,9.2680045E-7,-7.6809505E-7,-1.7053125E-6,7.117597E-7,1.4633061E-6,5.6783243E-8,3.080836E-6,3.499728E-5,-2.092842E-6,-6.136134E-5,7.654136E-6,7.786774E-5,-1.7735169E-6,-4.9696445E-7,-5.2699477E-7,4.2938802E-5,-2.2877177E-6,-1.0607748E-6,-8.090658E-6,-2.9135348E-5,6.3320663E-6,-1.5090387E-5,-3.102117E-5,-5.9638744E-5,-2.097181E-5,1.0920987E-5,6.352823E-6,8.207018E-5,1.8572425E-6,-6.454098E-7,7.2031085E-5,1.3913307E-6,-7.739037E-7,1.8163429E-6,4.227259E-6,1.6317008E-6,6.971131E-6,2.4750645E-6,2.1029978E-6,3.6604186E-5,3.3380109E-6,-1.2638754E-5,8.961473E-6,8.622777E-5,7.913289E-7,-6.032684E-5,4.945617E-6,1.5351965E-5,4.0919167E-6,2.5000709E-5,8.30307E-6,1.4922031E-5,8.26364E-6,1.5587537E-5,2.30375E-5,5.6076857E-5,1.2291929E-4,3.9643227E-4,2.6540027E-5,8.887514E-5],"categories":[],"categories_nodes":[],"categories_segments":[],"categories_sizes":[],"default_left":[0,0,0,0,0,0,0,0,0,0,0,0,0,0,0,0,0,0,0,0,0,0,0,0,0,0,0,0,0,0,0,0,0,0,0,0,0,0,0,0,0,0,0,0,0,0,0,0,0,0,0,0,0,0,0,0,0,0,0,0,0,0,0,0,0,0,0,0,0,0,0,0,0,0,0,0,0,0,0,0,0,0,0,0,0,0,0,0,0,0,0,0,0,0,0,0,0,0,0,0,0,0,0,0,0,0,0,0,0,0,0,0,0,0,0,0,0,0,0,0,0,0,0,0,0],"id":7,"left_children":[1,3,5,7,9,11,13,15,17,19,21,23,25,27,29,31,33,35,37,39,41,43,45,47,49,51,53,55,57,59,61,63,65,67,69,71,73,75,-1,77,79,81,83,85,87,89,91,93,95,97,99,101,103,105,107,109,111,113,115,117,119,121,123,-1,-1,-1,-1,-1,-1,-1,-1,-1,-1,-1,-1,-1,-1,-1,-1,-1,-1,-1,-1,-1,-1,-1,-1,-1,-1,-1,-1,-1,-1,-1,-1,-1,-1,-1,-1,-1,-1,-1,-1,-1,-1,-1,-1,-1,-1,-1,-1,-1,-1,-1,-1,-1,-1,-1,-1,-1,-1,-1,-1,-1,-1],"loss_changes":[5.8942265E-4,8.3958555E-5,2.0392163E-4,1.8421613E-5,8.337491E-6,2.1736145E-5,6.927183E-5,1.4248382E-5,3.0168976E-6,2.8501381E-6,5.200014E-6,1.800538E-5,6.772527E-6,3.7948572E-5,3.3289165E-5,3.1229793E-6,6.5204567E-6,3.3718134E-6,2.6499238E-6,1.9831896E-6,4.1102176E-6,1.0988257E-5,5.274537E-6,6.3655402E-6,1.8041836E-5,3.7162736E-6,7.307084E-6,1.9295141E-5,2.5406887E-5,1.8892984E-5,1.9297346E-5,1.5870646E-6,4.555271E-6,5.193947E-6,5.30445E-6,5.4066095E-6,2.892709E-6,5.767747E-6,0E0,1.1838383E-6,7.260977E-6,1.695822E-6,2.266735E-6,2.2314812E-6,2.7186634E-6,4.557568E-6,5.9237E-6,6.1148803E-6,4.6916325E-6,1.7761224E-5,1.823064E-5,2.3311532E-6,3.034398E-6,1.4974346E-6,5.164642E-6,8.118329E-6,2.0194391E-5,1.9009634E-5,2.0969033E-5,8.0976315E-6,8.781284E-6,8.686453E-6,1.733967E-5,0E0,0E0,0E0,0E0,0E0,0E0,0E0,0E0,0E0,0E0,0E0,0E0,0E0,0E0,0E0,0E0,0E0,0E0,0E0,0E0,0E0,0E0,0E0,0E0,0E0,0E0,0E0,0E0,0E0,0E0,0E0,0E0,0E0,0E0,0E0,0E0,0E0,0E0,0E0,0E0,0E0,0E0,0E0,0E0,0E0,0E0,0E0,0E0,0E0,0E0,0E0,0E0,0E0,0E0,0E0,0E0,0E0,0E0,0E0,0E0,0E0,0E0],"parents":[2147483647,0,0,1,1,2,2,3,3,4,4,5,5,6,6,7,7,8,8,9,9,10,10,11,11,12,12,13,13,14,14,15,15,16,16,17,17,18,18,19,19,20,20,21,21,22,22,23,23,24,24,25,25,26,26,27,27,28,28,29,29,30,30,31,31,32,32,33,33,34,34,35,35,36,36,37,37,39,39,40,40,41,41,42,42,43,43,44,44,45,45,46,46,47,47,48,48,49,49,50,50,51,51,52,52,53,53,54,54,55,55,56,56,57,57,58,58,59,59,60,60,61,61,62,62],"right_children":[2,4,6,8,10,12,14,16,18,20,22,24,26,28,30,32,34,36,38,40,42,44,46,48,50,52,54,56,58,60,62,64,66,68,70,72,74,76,-1,78,80,82,84,86,88,90,92,94,96,98,100,102,104,106,108,110,112,114,116,118,120,122,124,-1,-1,-1,-1,-1,-1,-1,-1,-1,-1,-1,-1,-1,-1,-1,-1,-1,-1,-1,-1,-1,-1,-1,-1,-1,-1,-1,-1,-1,-1,-1,-1,-1,-1,-1,-1,-1,-1,-1,-1,-1,-1,-1,-1,-1,-1,-1,-1,-1,-1,-1,-1,-1,-1,-1,-1,-1,-1,-1,-1,-1,-1],"split_conditions":[3.8419214E-5,8.5E1,2.3626893E-4,1.24149E0,2.4905967E-4,1.23825E0,2.4E1,8.342434E-5,4E0,1.9E2,5E0,6E0,3E0,1.23761E0,4.1242986E-4,1.2093E0,6E0,2.4020781E-4,1.1800528E-3,4.7315672E-4,8.976893E-5,4E0,5.871634E-4,8.761943E-4,2.1004677E-4,2.2382736E-4,1.24002E0,6E0,2E0,1.24479E0,1.20964E0,1.20839E0,1.21893E0,2.8832754E-4,1.6E1,8.80003E-4,8.227248E-4,1.0999441E-3,-2.5649953E-5,1.20998E0,1.4980098E-3,1.6298E5,1.2188E0,9.166667E-1,7.45932E-4,2.1E1,1.9E2,1E0,1.23466E0,1.20927E0,1.6E1,2E0,9.4964355E-4,4.6831171E-4,1.3400316E-3,1.5000105E-3,9.800196E-4,1.0609748E-3,1.24481E0,3.237199E-5,3.14E2,6.5E1,7.5006485E-4,-1.0511175E-6,-2.2500094E-6,9.2680045E-7,-7.6809505E-7,-1.7053125E-6,7.117597E-7,1.4633061E-6,5.6783243E-8,3.080836E-6,3.499728E-5,-2.092842E-6,-6.136134E-5,7.654136E-6,7.786774E-5,-1.7735169E-6,-4.9696445E-7,-5.2699477E-7,4.2938802E-5,-2.2877177E-6,-1.0607748E-6,-8.090658E-6,-2.9135348E-5,6.3320663E-6,-1.5090387E-5,-3.102117E-5,-5.9638744E-5,-2.097181E-5,1.0920987E-5,6.352823E-6,8.207018E-5,1.8572425E-6,-6.454098E-7,7.2031085E-5,1.3913307E-6,-7.739037E-7,1.8163429E-6,4.227259E-6,1.6317008E-6,6.971131E-6,2.4750645E-6,2.1029978E-6,3.6604186E-5,3.3380109E-6,-1.2638754E-5,8.961473E-6,8.622777E-5,7.913289E-7,-6.032684E-5,4.945617E-6,1.5351965E-5,4.0919167E-6,2.5000709E-5,8.30307E-6,1.4922031E-5,8.26364E-6,1.5587537E-5,2.30375E-5,5.6076857E-5,1.2291929E-4,3.9643227E-4,2.6540027E-5,8.887514E-5],"split_indices":[25,20,26,2,26,6,4,26,31,20,31,30,31,12,25,1,30,16,13,27,26,31,27,27,13,15,3,30,31,9,12,6,11,14,30,15,27,15,0,3,15,20,0,17,27,30,20,30,11,9,30,31,27,15,13,13,13,27,10,16,19,4,15,0,0,0,0,0,0,0,0,0,0,0,0,0,0,0,0,0,0,0,0,0,0,0,0,0,0,0,0,0,0,0,0,0,0,0,0,0,0,0,0,0,0,0,0,0,0,0,0,0,0,0,0,0,0,0,0,0,0,0,0,0,0],"split_type":[0,0,0,0,0,0,0,0,0,0,0,0,0,0,0,0,0,0,0,0,0,0,0,0,0,0,0,0,0,0,0,0,0,0,0,0,0,0,0,0,0,0,0,0,0,0,0,0,0,0,0,0,0,0,0,0,0,0,0,0,0,0,0,0,0,0,0,0,0,0,0,0,0,0,0,0,0,0,0,0,0,0,0,0,0,0,0,0,0,0,0,0,0,0,0,0,0,0,0,0,0,0,0,0,0,0,0,0,0,0,0,0,0,0,0,0,0,0,0,0,0,0,0,0,0],"sum_hessian":[1.263168E7,8.624934E6,4.006746E6,3.635452E6,4.989482E6,2.836893E6,1.169853E6,3.548763E6,8.6689E4,4.983479E6,6.003E3,2.620679E6,2.16214E5,1.090022E6,7.9831E4,2.247316E6,1.301447E6,7.0244E4,1.6445E4,6.48526E5,4.334953E6,3.155E3,2.848E3,5.53967E5,2.066712E6,1.39827E5,7.6387E4,8.03126E5,2.86896E5,6.8908E4,1.0923E4,1.37301E6,8.74306E5,3.35402E5,9.66045E5,6.9945E4,2.99E2,1.6234E4,2.11E2,6.46104E5,2.422E3,4.328123E6,6.83E3,1.944E3,1.211E3,2.03E3,8.18E2,5.53625E5,3.42E2,1.065215E6,1.001497E6,4.6645E4,9.3182E4,2.8973E4,4.7414E4,9.6023E4,7.07103E5,1.03405E5,1.83491E5,6.1362E4,7.546E3,1.14E2,1.0809E4,1.265164E6,1.07846E5,1.79614E5,6.94692E5,2.03579E5,1.31823E5,4.96702E5,4.69343E5,6.9465E4,4.8E2,1.66E2,1.33E2,1.6129E4,1.05E2,5.72288E5,7.3816E4,2.005E3,4.17E2,4.224243E6,1.0388E5,6.334E3,4.96E2,6.64E2,1.28E3,6.56E2,5.55E2,1.476E3,5.54E2,7.12E2,1.06E2,1.09541E5,4.44084E5,1.9E2,1.52E2,3.59739E5,7.05476E5,4.18063E5,5.83434E5,3.1054E4,1.5591E4,9.2953E4,2.29E2,2.8436E4,5.37E2,4.7337E4,7.7E1,9.5828E4,1.95E2,6.89902E5,1.7201E4,9.9332E4,4.073E3,1.14388E5,6.9103E4,4.105E4,2.0312E4,6.735E3,8.11E2,1.03E2,1.1E1,1.0392E4,4.17E2],"tree_param":{"num_deleted":"0","num_feature":"35","num_nodes":"125","size_leaf_vector":"1"}},{"base_weights":[4.075232E-10,-2.4133242E-6,9.8367345E-6,-4.7084773E-6,9.82569E-7,7.5332705E-6,2.4311717E-5,-2.6848884E-6,-5.261376E-6,4.506998E-7,7.741558E-6,4.318734E-6,1.1584558E-5,1.483675E-5,3.9179256E-5,-2.6910593E-6,1.4951554E-4,-5.1907764E-6,-2.3020335E-5,-2.3905263E-6,1.4296869E-6,9.160585E-6,-3.2813828E-6,6.8103784E-4,4.2989473E-6,4.8781285E-6,1.44653495E-5,1.362467E-4,1.4352487E-5,1.8372973E-5,5.208663E-5,-2.7911744E-6,1.724104E-5,-4.962535E-6,-6.6250504E-6,-1.8074434E-5,-5.6710247E-5,2.9463483E-6,-3.4271752E-6,-2.2091315E-6,2.6317978E-6,8.2189064E-5,8.944449E-6,-1.2946589E-5,6.8761633E-6,-3.8510967E-5,6.182039E-4,2.951499E-6,8.758049E-6,3.2540318E-4,4.6308905E-6,1.6343782E-5,7.426571E-7,9.137899E-5,4.8610184E-4,2.1477468E-5,8.613179E-6,1.4671728E-5,1.0741604E-4,4.8536553E-5,2.5071698E-4,-1.1628595E-6,-3.8662492E-7,4.900367E-6,4.4497423E-4,-1.0484541E-6,-1.6375881E-6,-2.169061E-6,-3.3177244E-8,-6.581119E-6,2.5708514E-6,-1.8993818E-5,5.043525E-5,4.163853E-7,2.995281E-6,-5.7473464E-8,-1.4655116E-6,-1.1023593E-6,6.2027135E-7,1.5551547E-6,1.4009541E-7,9.310948E-6,1.1804178E-4,1.3024458E-6,3.3237325E-6,-2.6865537E-6,-2.0292264E-5,8.5535714E-7,7.4121217E-6,1.3634514E-6,-2.0425996E-7,2.5711215E-6,2.5737052E-5,3.242819E-5,4.6606397E-4,4.4015337E-6,4.473973E-7,3.6437298E-6,7.3052292E-6,-1.9531454E-7,3.112879E-5,2.0797252E-5,9.426556E-5,2.627123E-4,1.0646791E-4,5.916102E-6,1.0316966E-5,6.308076E-7,6.986629E-6,1.1181867E-5,3.1948193E-6,9.2849536E-5,2.3745117E-5,1.3333299E-5,2.9145716E-5,1.02851845E-5,8.447529E-5],"categories":[],"categories_nodes":[],"categories_segments":[],"categories_sizes":[],"default_left":[0,0,0,0,0,0,0,0,0,0,0,0,0,0,0,0,0,0,0,0,0,0,0,0,0,0,0,0,0,0,0,0,0,0,0,0,0,0,0,0,0,0,0,0,0,0,0,0,0,0,0,0,0,0,0,0,0,0,0,0,0,0,0,0,0,0,0,0,0,0,0,0,0,0,0,0,0,0,0,0,0,0,0,0,0,0,0,0,0,0,0,0,0,0,0,0,0,0,0,0,0,0,0,0,0,0,0,0,0,0,0,0,0,0,0,0,0],"id":8,"left_children":[1,3,5,7,9,11,13,15,17,19,21,23,25,27,29,31,-1,33,35,37,39,41,43,45,47,49,51,53,55,57,59,61,63,65,67,69,71,73,75,77,79,81,83,85,87,-1,-1,89,91,93,95,97,99,101,103,105,107,109,111,113,115,-1,-1,-1,-1,-1,-1,-1,-1,-1,-1,-1,-1,-1,-1,-1,-1,-1,-1,-1,-1,-1,-1,-1,-1,-1,-1,-1,-1,-1,-1,-1,-1,-1,-1,-1,-1,-1,-1,-1,-1,-1,-1,-1,-1,-1,-1,-1,-1,-1,-1,-1,-1,-1,-1,-1,-1],"loss_changes":[2.999046E-4,7.90536E-5,8.2987084E-5,6.771501E-6,1.47049E-5,2.7963346E-5,4.813407E-5,4.017181E-6,5.959664E-6,1.0547796E-5,4.667594E-6,1.6028656E-5,1.8353268E-5,1.2268301E-5,3.5716803E-5,2.5917452E-6,0E0,1.5499245E-6,3.1352292E-6,5.376355E-6,1.2336792E-5,4.172094E-6,3.3413694E-6,3.9348768E-5,7.193379E-6,2.2619399E-5,1.7129481E-5,1.2968556E-5,8.50013E-6,1.6780465E-5,5.7866826E-5,2.1066207E-6,8.601733E-6,2.9740622E-6,2.5624686E-6,1.689446E-6,3.5866124E-6,1.733569E-6,3.8383714E-6,4.3891355E-6,1.1712203E-5,1.2407691E-5,2.5899208E-6,3.8066742E-6,1.1909347E-6,0E0,0E0,5.321118E-6,4.015097E-6,5.8547183E-5,8.991674E-6,1.9647166E-5,1.1488152E-5,3.5954258E-6,4.494472E-6,2.1034575E-6,1.1000262E-5,4.4441613E-6,1.15822695E-5,1.6038743E-5,9.617244E-6,0E0,0E0,0E0,0E0,0E0,0E0,0E0,0E0,0E0,0E0,0E0,0E0,0E0,0E0,0E0,0E0,0E0,0E0,0E0,0E0,0E0,0E0,0E0,0E0,0E0,0E0,0E0,0E0,0E0,0E0,0E0,0E0,0E0,0E0,0E0,0E0,0E0,0E0,0E0,0E0,0E0,0E0,0E0,0E0,0E0,0E0,0E0,0E0,0E0,0E0,0E0,0E0,0E0,0E0,0E0,0E0],"parents":[2147483647,0,0,1,1,2,2,3,3,4,4,5,5,6,6,7,7,8,8,9,9,10,10,11,11,12,12,13,13,14,14,15,15,17,17,18,18,19,19,20,20,21,21,22,22,23,23,24,24,25,25,26,26,27,27,28,28,29,29,30,30,31,31,32,32,33,33,34,34,35,35,36,36,37,37,38,38,39,39,40,40,41,41,42,42,43,43,44,44,47,47,48,48,49,49,50,50,51,51,52,52,53,53,54,54,55,55,56,56,57,57,58,58,59,59,60,60],"right_children":[2,4,6,8,10,12,14,16,18,20,22,24,26,28,30,32,-1,34,36,38,40,42,44,46,48,50,52,54,56,58,60,62,64,66,68,70,72,74,76,78,80,82,84,86,88,-1,-1,90,92,94,96,98,100,102,104,106,108,110,112,114,116,-1,-1,-1,-1,-1,-1,-1,-1,-1,-1,-1,-1,-1,-1,-1,-1,-1,-1,-1,-1,-1,-1,-1,-1,-1,-1,-1,-1,-1,-1,-1,-1,-1,-1,-1,-1,-1,-1,-1,-1,-1,-1,-1,-1,-1,-1,-1,-1,-1,-1,-1,-1,-1,-1,-1,-1],"split_conditions":[6.2349085E-5,1E0,1.25E2,1.05E2,1.23756E0,2.100793E-4,2.4582943E-4,3.000021E-3,1.2624888E-4,6E0,2.2E1,4.1042898E-2,1E0,6.010879E-8,1E0,1.0700226E-3,1.4951554E-4,2.1E1,3.5626912E-5,1E0,1.7965237E-4,1.23742E0,2.3E1,8.1498426E-4,5.976262E-10,4.1042898E-2,1.6E1,1.39E2,1E0,7.5006485E-4,5.5003166E-4,1.2062E0,2.1E1,1.0885E4,6E0,1.21582E0,7.851226E-4,3.399849E-4,4.160144E-6,1.21023E0,1.6E1,2.3932284E-4,5E0,2.7173368E-4,4E0,-3.8510967E-5,6.182039E-4,1E0,1.0299683E-3,2.4020781E-4,1.4522725E-5,5.513781E-4,3.9994717E-4,1.2172E0,7.851226E-4,2.3416281E-4,1.23501E0,1.21964E0,8.0675505E-5,3.9E1,8E0,-1.1628595E-6,-3.8662492E-7,4.900367E-6,4.4497423E-4,-1.0484541E-6,-1.6375881E-6,-2.169061E-6,-3.3177244E-8,-6.581119E-6,2.5708514E-6,-1.8993818E-5,5.043525E-5,4.163853E-7,2.995281E-6,-5.7473464E-8,-1.4655116E-6,-1.1023593E-6,6.2027135E-7,1.5551547E-6,1.4009541E-7,9.310948E-6,1.1804178E-4,1.3024458E-6,3.3237325E-6,-2.6865537E-6,-2.0292264E-5,8.5535714E-7,7.4121217E-6,1.3634514E-6,-2.0425996E-7,2.5711215E-6,2.5737052E-5,3.242819E-5,4.6606397E-4,4.4015337E-6,4.473973E-7,3.6437298E-6,7.3052292E-6,-1.9531454E-7,3.112879E-5,2.0797252E-5,9.426556E-5,2.627123E-4,1.0646791E-4,5.916102E-6,1.0316966E-5,6.308076E-7,6.986629E-6,1.1181867E-5,3.1948193E-6,9.2849536E-5,2.3745117E-5,1.3333299E-5,2.9145716E-5,1.02851845E-5,8.447529E-5],"split_indices":[25,18,19,20,2,26,14,13,26,30,30,29,32,16,32,15,0,30,16,30,15,7,30,14,24,29,30,18,34,15,13,7,19,20,31,11,26,15,16,5,30,26,30,26,31,0,0,34,13,16,16,27,13,1,26,15,1,10,16,4,30,0,0,0,0,0,0,0,0,0,0,0,0,0,0,0,0,0,0,0,0,0,0,0,0,0,0,0,0,0,0,0,0,0,0,0,0,0,0,0,0,0,0,0,0,0,0,0,0,0,0,0,0,0,0,0,0],"split_type":[0,0,0,0,0,0,0,0,0,0,0,0,0,0,0,0,0,0,0,0,0,0,0,0,0,0,0,0,0,0,0,0,0,0,0,0,0,0,0,0,0,0,0,0,0,0,0,0,0,0,0,0,0,0,0,0,0,0,0,0,0,0,0,0,0,0,0,0,0,0,0,0,0,0,0,0,0,0,0,0,0,0,0,0,0,0,0,0,0,0,0,0,0,0,0,0,0,0,0,0,0,0,0,0,0,0,0,0,0,0,0,0,0,0,0,0,0],"sum_hessian":[1.263168E7,1.0142755E7,2.488925E6,6.052263E6,4.090492E6,2.147229E6,3.41696E5,1.29878E6,4.753483E6,3.792091E6,2.98401E5,1.197256E6,9.49973E5,2.08697E5,1.32999E5,1.298765E6,1.5E1,4.734662E6,1.8821E4,9.7178E5,2.820311E6,2.64368E5,3.4033E4,3.4E1,1.197222E6,2.85451E5,6.64522E5,8.28E2,2.07869E5,5.092E4,8.2079E4,1.292275E6,6.49E3,4.084659E6,6.50003E5,1.6413E4,2.408E3,1.58059E5,8.13721E5,7.00346E5,2.119965E6,7.79E2,2.63589E5,1.7439E4,1.6594E4,2.2E1,1.2E1,9.194E5,2.77822E5,2.19E2,2.85232E5,5.84511E5,8.0011E4,7.35E2,9.3E1,9.2738E4,1.15131E5,4.8889E4,2.031E3,8.0639E4,1.44E3,7.5037E5,5.41905E5,6.487E3,3E0,1.031872E6,3.052787E6,5.94754E5,5.5249E4,1.4335E4,2.078E3,2.34E3,6.8E1,1.29406E5,2.8653E4,2.52755E5,5.60966E5,5.21616E5,1.7873E5,9.72961E5,1.147004E6,6.7E2,1.09E2,8.3513E4,1.80076E5,1.6254E4,1.185E3,1.3539E4,3.055E3,6.39071E5,2.80329E5,2.77148E5,6.74E2,1.87E2,3.2E1,6.7941E4,2.17291E5,3.83465E5,2.01046E5,7.8944E4,1.067E3,6.7E2,6.5E1,2.2E1,7.1E1,8.1632E4,1.1106E4,7.9752E4,3.5379E4,7.385E3,4.1504E4,2.48E2,1.783E3,7.438E4,6.259E3,1.8E2,1.26E3],"tree_param":{"num_deleted":"0","num_feature":"35","num_nodes":"117","size_leaf_vector":"1"}},{"base_weights":[4.965006E-10,-2.2909078E-6,5.419364E-6,-3.3493857E-6,3.2333062E-8,3.261817E-6,1.4798335E-5,-1.1024944E-6,-2.3390103E-6,-1.5502118E-6,1.7181432E-6,2.4893598E-6,9.129566E-6,1.40586235E-5,7.0869966E-5,-1.1441846E-6,-1.7801304E-6,-1.5604413E-6,1.21724115E-4,-6.6018504E-7,3.9973716E-6,2.3306307E-6,2.3067627E-5,6.0050534E-6,1.4183266E-5,1.1938615E-5,2.7545848E-5,6.45557E-4,5.977712E-5,-5.5606415E-7,2.6141452E-5,-1.3784255E-6,-2.4358314E-5,-5.631177E-7,-7.4107804E-5,1.182696E-5,1.5872633E-6,2.3204973E-6,3.0030758E-4,2.0012621E-5,7.339491E-5,5.630263E-6,5.61963E-5,8.602983E-6,2.5840145E-5,1.9254356E-5,8.858274E-6,3.371859E-5,-1.036234E-5,2.9196707E-3,2.596617E-4,4.3941443E-5,1.9077315E-4,2.9234589E-5,2.6973737E-6,-4.829294E-7,4.598474E-6,-1.0308289E-5,-2.5515553E-6,-6.7829683E-7,1.1778955E-6,-1.747868E-5,-4.84069E-5,1.940664E-6,8.085653E-6,4.5779115E-7,1.1683572E-4,5.880502E-7,3.1749914E-6,2.761616E-5,1.1591583E-3,5.173093E-6,1.6547203E-5,1.687109E-5,2.1894401E-4,3.898345E-6,1.1709535E-6,3.2205135E-5,-5.651225E-6,1.7276866E-6,7.5603803E-6,1.0185278E-5,4.1410476E-6,3.3119738E-6,6.635541E-6,1.3454168E-6,5.0231156E-6,6.3254893E-6,1.5822277E-5,-4.36319E-6,3.617545E-5,-4.062681E-5,1.1070645E-3,4.5116158E-5,1.2714081E-4,8.214423E-6,3.270658E-5,2.0735211E-5,7.483277E-5],"categories":[],"categories_nodes":[],"categories_segments":[],"categories_sizes":[],"default_left":[0,0,0,0,0,0,0,0,0,0,0,0,0,0,0,0,0,0,0,0,0,0,0,0,0,0,0,0,0,0,0,0,0,0,0,0,0,0,0,0,0,0,0,0,0,0,0,0,0,0,0,0,0,0,0,0,0,0,0,0,0,0,0,0,0,0,0,0,0,0,0,0,0,0,0,0,0,0,0,0,0,0,0,0,0,0,0,0,0,0,0,0,0,0,0,0,0,0,0],"id":9,"left_children":[1,3,5,7,9,11,13,-1,15,17,19,21,23,25,27,-1,29,31,-1,33,35,37,39,41,43,45,47,49,51,-1,53,55,57,59,61,63,65,67,69,71,73,75,77,79,81,83,85,87,89,91,93,95,97,-1,-1,-1,-1,-1,-1,-1,-1,-1,-1,-1,-1,-1,-1,-1,-1,-1,-1,-1,-1,-1,-1,-1,-1,-1,-1,-1,-1,-1,-1,-1,-1,-1,-1,-1,-1,-1,-1,-1,-1,-1,-1,-1,-1,-1,-1],"loss_changes":[1.5684529E-4,2.1831118E-5,7.59641E-5,2.006389E-6,7.4132618E-6,1.3833083E-5,2.9118484E-5,0E0,1.2252613E-6,5.972225E-6,7.2934195E-6,8.809011E-6,5.605976E-6,1.9812564E-5,5.823449E-5,0E0,2.2097624E-6,5.947227E-6,0E0,4.6940618E-6,1.2964627E-5,8.080184E-6,3.1723957E-6,4.1267094E-6,8.8229845E-6,1.3493882E-5,2.2024891E-5,1.5106145E-4,1.8597017E-5,0E0,3.4563548E-6,5.4954253E-6,1.7998323E-6,5.0121744E-6,1.191991E-6,1.3105064E-5,1.2488437E-5,7.967816E-6,6.717753E-5,1.8930896E-6,1.3260311E-5,2.769647E-6,6.2430736E-6,4.33006E-6,4.286414E-6,4.174035E-6,1.4532292E-5,1.9451196E-5,7.219301E-6,5.9351878E-5,2.6087928E-6,8.622126E-6,6.884693E-6,0E0,0E0,0E0,0E0,0E0,0E0,0E0,0E0,0E0,0E0,0E0,0E0,0E0,0E0,0E0,0E0,0E0,0E0,0E0,0E0,0E0,0E0,0E0,0E0,0E0,0E0,0E0,0E0,0E0,0E0,0E0,0E0,0E0,0E0,0E0,0E0,0E0,0E0,0E0,0E0,0E0,0E0,0E0,0E0,0E0,0E0],"parents":[2147483647,0,0,1,1,2,2,3,3,4,4,5,5,6,6,8,8,9,9,10,10,11,11,12,12,13,13,14,14,16,16,17,17,19,19,20,20,21,21,22,22,23,23,24,24,25,25,26,26,27,27,28,28,30,30,31,31,32,32,33,33,34,34,35,35,36,36,37,37,38,38,39,39,40,40,41,41,42,42,43,43,44,44,45,45,46,46,47,47,48,48,49,49,50,50,51,51,52,52],"right_children":[2,4,6,8,10,12,14,-1,16,18,20,22,24,26,28,-1,30,32,-1,34,36,38,40,42,44,46,48,50,52,-1,54,56,58,60,62,64,66,68,70,72,74,76,78,80,82,84,86,88,90,92,94,96,98,-1,-1,-1,-1,-1,-1,-1,-1,-1,-1,-1,-1,-1,-1,-1,-1,-1,-1,-1,-1,-1,-1,-1,-1,-1,-1,-1,-1,-1,-1,-1,-1,-1,-1,-1,-1,-1,-1,-1,-1,-1,-1,-1,-1,-1,-1],"split_conditions":[1E0,1.2251434E-4,1.2397896E-4,2.5644267E-5,1E0,1.23756E0,9.800196E-4,-1.1024944E-6,6E0,3.000021E-3,1.2101E0,7.299185E-4,3E0,8.761943E-4,9.105643E-2,-1.1441846E-6,1.0100603E-3,4.7E2,1.21724115E-4,5E0,7.4870486E-6,1.0999441E-3,1E0,1.0609748E-3,1.24387E0,1E0,1.7E1,3.0002714E-4,1E0,-5.5606415E-7,1.5000105E-3,1.0999441E-3,5E0,2.0919244E-4,1.2438078E-4,1.21383E0,1.0000467E-3,1.4E1,3.2E1,1.23562E0,1.23081E0,1.2388E0,1.5E1,5.871634E-4,1.6E1,1E0,1.23431E0,2.633234E-4,6.70937E-1,2.4020781E-4,5.4E1,1.24094E0,2.4E1,2.9234589E-5,2.6973737E-6,-4.829294E-7,4.598474E-6,-1.0308289E-5,-2.5515553E-6,-6.7829683E-7,1.1778955E-6,-1.747868E-5,-4.84069E-5,1.940664E-6,8.085653E-6,4.5779115E-7,1.1683572E-4,5.880502E-7,3.1749914E-6,2.761616E-5,1.1591583E-3,5.173093E-6,1.6547203E-5,1.687109E-5,2.1894401E-4,3.898345E-6,1.1709535E-6,3.2205135E-5,-5.651225E-6,1.7276866E-6,7.5603803E-6,1.0185278E-5,4.1410476E-6,3.3119738E-6,6.635541E-6,1.3454168E-6,5.0231156E-6,6.3254893E-6,1.5822277E-5,-4.36319E-6,3.617545E-5,-4.062681E-5,1.1070645E-3,4.5116158E-5,1.2714081E-4,8.214423E-6,3.270658E-5,2.0735211E-5,7.483277E-5],"split_indices":[4,27,25,26,32,3,13,0,30,13,6,13,31,27,29,0,15,20,0,31,16,15,32,27,10,34,30,26,32,0,13,13,31,14,16,5,13,4,18,7,7,2,30,27,30,32,5,14,29,16,19,0,19,0,0,0,0,0,0,0,0,0,0,0,0,0,0,0,0,0,0,0,0,0,0,0,0,0,0,0,0,0,0,0,0,0,0,0,0,0,0,0,0,0,0,0,0,0,0],"split_type":[0,0,0,0,0,0,0,0,0,0,0,0,0,0,0,0,0,0,0,0,0,0,0,0,0,0,0,0,0,0,0,0,0,0,0,0,0,0,0,0,0,0,0,0,0,0,0,0,0,0,0,0,0,0,0,0,0,0,0,0,0,0,0,0,0,0,0,0,0,0,0,0,0,0,0,0,0,0,0,0,0,0,0,0,0,0,0,0,0,0,0,0,0,0,0,0,0,0,0],"sum_hessian":[1.263168E7,8.87769E6,3.75399E6,6.098973E6,2.778717E6,3.051924E6,7.02066E5,4.612563E6,1.48641E6,1.433256E6,1.345461E6,2.696894E6,3.5503E5,6.92926E5,9.14E3,4.08454E5,1.077956E6,1.433221E6,3.5E1,6.58417E5,6.87044E5,2.676252E6,2.0642E4,2.19391E5,1.35639E5,5.98804E5,9.4122E4,1.72E2,8.968E3,1.07513E6,2.826E3,1.42187E6,1.1351E4,6.57549E5,8.68E2,1.61708E5,5.25336E5,2.676162E6,9E1,1.9462E4,1.18E3,2.17766E5,1.625E3,9.1729E4,4.391E4,1.77423E5,4.21381E5,8.0942E4,1.318E4,2.4E1,1.48E2,8.002E3,9.66E2,5.47E2,2.279E3,1.402451E6,1.9419E4,6.959E3,4.392E3,4.7711E5,1.80439E5,7.36E2,1.32E2,1.19409E5,4.2299E4,5.25254E5,8.2E1,2.564336E6,1.11826E5,8.6E1,4E0,1.8042E4,1.42E3,1.151E3,2.9E1,4.1368E4,1.76398E5,9.66E2,6.59E2,7.8312E4,1.3417E4,2.6232E4,1.7678E4,4.587E4,1.31553E5,2.71049E5,1.50332E5,4.864E4,3.2302E4,1.2773E4,4.07E2,5E0,1.9E1,9E1,5.8E1,6.38E3,1.622E3,3.15E2,6.51E2],"tree_param":{"num_deleted":"0","num_feature":"35","num_nodes":"99","size_leaf_vector":"1"}},{"base_weights":[5.9666694E-10,4.115066E-6,-1.7392342E-6,2.4221558E-6,1.0662264E-5,-2.3984799E-6,-2.9672736E-7,-1.1020303E-6,3.2743446E-6,8.704646E-6,2.4770456E-5,-2.3886507E-6,-1.1267974E-4,-3.900333E-7,3.2148728E-5,-1.1702004E-6,9.732592E-5,2.7807137E-6,1.005531E-5,-1.0241052E-6,1.0456006E-5,2.3518987E-5,1.2342083E-4,-2.3608784E-6,-2.9222336E-5,-2.6671643E-5,-2.2385837E-4,-3.2218961E-6,3.5907593E-7,3.015765E-5,2.6351953E-4,-1.7033427E-6,5.8310466E-6,1.1874771E-4,-6.1379076E-5,2.0927082E-6,5.8478213E-6,4.2722304E-6,1.7024553E-5,-2.433654E-6,6.84725E-5,6.673117E-5,1.0082311E-5,2.2008133E-5,8.387277E-5,1.3228899E-3,1.16145246E-4,-2.0129405E-6,-3.1389438E-6,3.701308E-4,-3.3038228E-5,7.869465E-5,-3.3318234E-4,-3.1177794E-6,-7.659648E-5,3.990709E-7,-5.7798967E-5,1.0850968E-4,2.447665E-5,2.5981973E-4,2.2994012E-5,6.1096216E-7,-8.1088245E-7,2.4050794E-6,-5.7969123E-6,1.8764686E-4,3.223189E-5,1.3739411E-6,3.350333E-7,1.50641E-6,7.886947E-6,1.2221226E-6,8.6752625E-5,6.655486E-6,2.6714724E-6,-8.658627E-7,3.118528E-5,1.1447214E-5,1.3931525E-4,1.5965124E-5,1.8263186E-4,2.6603402E-6,7.2343773E-6,5.302497E-6,9.776193E-6,2.4720304E-5,5.126111E-4,9.460242E-5,4.9885234E-4,6.576109E-8,4.2355226E-5,-6.192274E-7,6.0601556E-6,-9.838017E-7,1.4920213E-6,4.4497024E-6,-1.5949883E-5,-4.8293E-5,-1.2791941E-4,-9.497445E-7,3.587625E-5,-1.9252911E-5,-8.697008E-5,-5.6251E-7,3.5713705E-7,-5.4542208E-5,-1.1082702E-5,-9.0791104E-7,1.7634402E-4,1.33866815E-5,-1.4685485E-6],"categories":[],"categories_nodes":[],"categories_segments":[],"categories_sizes":[],"default_left":[0,0,0,0,0,0,0,0,0,0,0,0,0,0,0,0,0,0,0,0,0,0,0,0,0,0,0,0,0,0,0,0,0,0,0,0,0,0,0,0,0,0,0,0,0,0,0,0,0,0,0,0,0,0,0,0,0,0,0,0,0,0,0,0,0,0,0,0,0,0,0,0,0,0,0,0,0,0,0,0,0,0,0,0,0,0,0,0,0,0,0,0,0,0,0,0,0,0,0,0,0,0,0,0,0,0,0,0,0,0,0],"id":10,"left_children":[1,3,5,7,9,11,13,15,17,19,21,23,25,27,29,31,33,35,37,39,41,43,45,47,49,-1,51,53,55,57,59,61,63,65,-1,67,69,71,73,75,77,79,81,83,85,87,89,91,93,-1,95,-1,97,99,101,103,105,107,109,-1,-1,-1,-1,-1,-1,-1,-1,-1,-1,-1,-1,-1,-1,-1,-1,-1,-1,-1,-1,-1,-1,-1,-1,-1,-1,-1,-1,-1,-1,-1,-1,-1,-1,-1,-1,-1,-1,-1,-1,-1,-1,-1,-1,-1,-1,-1,-1,-1,-1,-1,-1],"loss_changes":[9.042365E-5,4.1608524E-5,8.442386E-6,8.957995E-6,2.130046E-5,6.604525E-6,8.430044E-6,3.897297E-6,8.039939E-6,1.1539752E-5,1.1599172E-5,4.540263E-6,1.4153502E-6,5.8902865E-6,3.6705633E-6,2.1664982E-6,2.6243215E-6,4.7245776E-6,6.5689037E-6,1.0121569E-5,1.206938E-5,8.4601925E-6,1.0117836E-5,1.6476479E-6,3.0398412E-5,0E0,5.1366933E-6,4.43717E-6,5.107487E-6,3.5217868E-6,7.5903854E-6,2.0162795E-6,2.2583993E-6,2.0873817E-6,0E0,4.438748E-6,6.9301996E-6,5.0360163E-6,3.096804E-6,4.875931E-6,2.4634617E-5,2.7700817E-5,9.71675E-6,4.149646E-6,5.2780233E-6,1.873259E-6,3.3989745E-6,4.778569E-6,2.14196E-6,0E0,6.0527896E-6,0E0,1.1834363E-6,3.419173E-6,2.1617334E-6,3.9490355E-6,3.8961566E-6,2.8602686E-5,4.3694295E-6,0E0,0E0,0E0,0E0,0E0,0E0,0E0,0E0,0E0,0E0,0E0,0E0,0E0,0E0,0E0,0E0,0E0,0E0,0E0,0E0,0E0,0E0,0E0,0E0,0E0,0E0,0E0,0E0,0E0,0E0,0E0,0E0,0E0,0E0,0E0,0E0,0E0,0E0,0E0,0E0,0E0,0E0,0E0,0E0,0E0,0E0,0E0,0E0,0E0,0E0,0E0,0E0],"parents":[2147483647,0,0,1,1,2,2,3,3,4,4,5,5,6,6,7,7,8,8,9,9,10,10,11,11,12,12,13,13,14,14,15,15,16,16,17,17,18,18,19,19,20,20,21,21,22,22,23,23,24,24,26,26,27,27,28,28,29,29,30,30,31,31,32,32,33,33,35,35,36,36,37,37,38,38,39,39,40,40,41,41,42,42,43,43,44,44,45,45,46,46,47,47,48,48,50,50,52,52,53,53,54,54,55,55,56,56,57,57,58,58],"right_children":[2,4,6,8,10,12,14,16,18,20,22,24,26,28,30,32,34,36,38,40,42,44,46,48,50,-1,52,54,56,58,60,62,64,66,-1,68,70,72,74,76,78,80,82,84,86,88,90,92,94,-1,96,-1,98,100,102,104,106,108,110,-1,-1,-1,-1,-1,-1,-1,-1,-1,-1,-1,-1,-1,-1,-1,-1,-1,-1,-1,-1,-1,-1,-1,-1,-1,-1,-1,-1,-1,-1,-1,-1,-1,-1,-1,-1,-1,-1,-1,-1,-1,-1,-1,-1,-1,-1,-1,-1,-1,-1,-1,-1],"split_conditions":[1E1,1.18173375E-4,1E0,1E0,6.8868187E-9,2.9900434E-4,1.1800528E-3,1.1800528E-3,1.24001E0,1E0,7.3E1,7.45932E-4,7.851226E-4,1E0,2.3E1,8.2E1,6.466688E-4,2.6648826E-5,3E0,3.14E2,1.08004406E-1,8.4996223E-4,5.084694E-8,1.21895E0,1.2008E0,-2.6671643E-5,1.20779E0,9.4964355E-4,3.1523412E-4,1.20095E0,3.7372607E-4,6.010879E-8,1E0,4.411766E-5,-6.1379076E-5,6.010879E-8,1E0,1.1800528E-3,1.6E1,1.1800528E-3,1.6287358E-4,1.0199547E-3,1.24546E0,2.7288983E-4,4.1542267E-3,8.2E1,9E0,1.21698E0,1.68945E5,3.701308E-4,1.9E1,7.869465E-5,1.1800528E-3,1.0199547E-3,2.4020781E-4,1.20601E0,1.6E1,1.20244E0,1.4980098E-3,2.5981973E-4,2.2994012E-5,6.1096216E-7,-8.1088245E-7,2.4050794E-6,-5.7969123E-6,1.8764686E-4,3.223189E-5,1.3739411E-6,3.350333E-7,1.50641E-6,7.886947E-6,1.2221226E-6,8.6752625E-5,6.655486E-6,2.6714724E-6,-8.658627E-7,3.118528E-5,1.1447214E-5,1.3931525E-4,1.5965124E-5,1.8263186E-4,2.6603402E-6,7.2343773E-6,5.302497E-6,9.776193E-6,2.4720304E-5,5.126111E-4,9.460242E-5,4.9885234E-4,6.576109E-8,4.2355226E-5,-6.192274E-7,6.0601556E-6,-9.838017E-7,1.4920213E-6,4.4497024E-6,-1.5949883E-5,-4.8293E-5,-1.2791941E-4,-9.497445E-7,3.587625E-5,-1.9252911E-5,-8.697008E-5,-5.6251E-7,3.5713705E-7,-5.4542208E-5,-1.1082702E-5,-9.0791104E-7,1.7634402E-4,1.33866815E-5,-1.4685485E-6],"split_indices":[20,25,18,31,24,25,13,15,2,31,4,27,26,31,30,19,26,16,31,19,29,14,16,9,6,0,5,27,28,5,27,16,34,27,0,16,33,15,30,15,16,14,8,25,23,4,30,6,20,0,30,0,14,15,16,10,19,9,15,0,0,0,0,0,0,0,0,0,0,0,0,0,0,0,0,0,0,0,0,0,0,0,0,0,0,0,0,0,0,0,0,0,0,0,0,0,0,0,0,0,0,0,0,0,0,0,0,0,0,0,0],"split_type":[0,0,0,0,0,0,0,0,0,0,0,0,0,0,0,0,0,0,0,0,0,0,0,0,0,0,0,0,0,0,0,0,0,0,0,0,0,0,0,0,0,0,0,0,0,0,0,0,0,0,0,0,0,0,0,0,0,0,0,0,0,0,0,0,0,0,0,0,0,0,0,0,0,0,0,0,0,0,0,0,0,0,0,0,0,0,0,0,0,0,0,0,0,0,0,0,0,0,0,0,0,0,0,0,0,0,0,0,0,0,0],"sum_hessian":[1.263168E7,3.75399E6,8.87769E6,2.982743E6,7.71247E5,6.093071E6,2.784619E6,5.80814E5,2.401929E6,6.77272E5,9.3975E4,6.092529E6,5.42E2,2.776635E6,7.984E3,5.80413E5,4.01E2,2.238943E6,1.62986E5,1.03322E5,5.7395E5,9.2799E4,1.176E3,6.086231E6,6.298E3,4.48E2,9.4E1,5.80848E5,2.195787E6,7.917E3,6.7E1,5.39343E5,4.107E4,3.75E2,2.6E1,1.828729E6,4.10214E5,8.9074E4,7.3912E4,1.01269E5,2.053E3,3.785E3,5.70165E5,9.0534E4,2.265E3,6E0,1.17E3,4.205572E6,1.880659E6,1.8E1,6.28E3,1.7E1,7.7E1,5.80026E5,8.22E2,2.194279E6,1.508E3,5.34E2,7.383E3,1.5E1,5.2E1,1.13752E5,4.25591E5,3.7787E4,3.283E3,7E0,3.68E2,5.15361E5,1.313368E6,3.94275E5,1.5939E4,8.9013E4,6.1E1,4.519E4,2.8722E4,1.00841E5,4.28E2,1.908E3,1.45E2,3.694E3,9.1E1,5.24749E5,4.5416E4,6.4229E4,2.6305E4,2.264E3,1E0,2E0,4E0,2.08E2,9.62E2,4.195911E6,9.661E3,1.848666E6,3.1993E4,1.859E3,4.421E3,2.8E1,4.9E1,5.798E5,2.26E2,7.78E2,4.4E1,5.66474E5,1.627805E6,2.16E2,1.292E3,4.34E2,1E2,4.379E3,3.004E3],"tree_param":{"num_deleted":"0","num_feature":"35","num_nodes":"111","size_leaf_vector":"1"}},{"base_weights":[6.086649E-10,-8.5440826E-7,4.321581E-6,8.09031E-7,-1.5823737E-6,3.3493554E-6,1.3931046E-5,6.256216E-7,1.3681888E-5,-1.5685027E-6,-5.3398755E-5,2.1676787E-7,4.4412727E-6,1.25557835E-5,4.9244412E-5,-1.1501119E-6,1.9312206E-6,4.2937983E-5,1.02394415E-5,-1.517834E-6,-6.8830404E-6,-3.5355075E-5,-1.3674302E-4,1.078175E-6,-5.8821806E-6,1.2380191E-5,3.2949417E-6,-1.30424805E-5,1.4223628E-5,4.2381266E-4,4.4112905E-5,-2.8477143E-6,1.4029314E-6,7.8218454E-7,5.4828242E-6,3.3374203E-5,2.1339762E-4,1.1226574E-5,-4.071483E-5,-1.8952908E-6,-8.511482E-7,-7.841819E-6,2.4967529E-5,-4.115555E-5,4.771028E-5,5.063081E-5,-1.830981E-4,-4.486001E-7,5.3380695E-6,-7.841583E-6,1.7306129E-6,7.70443E-6,2.8442497E-5,4.65718E-6,-3.122164E-6,-4.0492064E-6,-1.6487385E-5,1.2857782E-5,4.944491E-5,8.7819196E-4,1.9657085E-4,2.870432E-5,1.1504279E-4,2.845089E-7,-1.2563323E-6,-1.2951926E-8,2.067203E-6,4.562518E-7,-9.650764E-7,5.713048E-7,2.4670474E-6,8.930623E-6,8.598003E-5,-3.6036806E-6,1.618778E-4,2.915604E-6,1.3151329E-5,-8.6708105E-6,-6.0772734E-5,-5.588113E-7,-4.4122944E-6,-3.8134402E-8,-7.330106E-7,-1.8892823E-6,-5.2858695E-6,-3.0788226E-5,1.1962155E-5,-2.7193188E-5,-7.644666E-6,-4.547085E-5,5.920421E-5,-9.4033596E-5,-4.0941293E-5,-3.311932E-8,-5.019114E-6,1.2087515E-6,5.7452203E-6,-1.689214E-6,-7.6165757E-6,2.0040327E-6,8.250606E-6,8.687827E-6,-3.5971218E-5,7.515104E-7,3.070978E-6,4.36742E-4,-9.753256E-7,8.068244E-6,-3.887091E-6,1.755953E-5,3.6576741E-6,2.4179812E-4,1.4374082E-5,3.3314266E-6,9.600279E-5,-7.2601883E-6,1.2571364E-5,2.8143319E-5,7.226036E-5],"categories":[],"categories_nodes":[],"categories_segments":[],"categories_sizes":[],"default_left":[0,0,0,0,0,0,0,0,0,0,0,0,0,0,0,0,0,0,0,0,0,0,0,0,0,0,0,0,0,0,0,0,0,0,0,0,0,0,0,0,0,0,0,0,0,0,0,0,0,0,0,0,0,0,0,0,0,0,0,0,0,0,0,0,0,0,0,0,0,0,0,0,0,0,0,0,0,0,0,0,0,0,0,0,0,0,0,0,0,0,0,0,0,0,0,0,0,0,0,0,0,0,0,0,0,0,0,0,0,0,0,0,0,0,0,0,0,0,0],"id":11,"left_children":[1,3,5,7,9,11,13,15,17,19,21,23,25,27,29,31,33,35,37,39,41,43,45,47,49,51,53,55,57,59,61,63,65,67,69,71,73,75,77,79,81,83,85,87,-1,89,91,93,95,97,-1,99,101,103,105,107,-1,109,111,-1,113,115,117,-1,-1,-1,-1,-1,-1,-1,-1,-1,-1,-1,-1,-1,-1,-1,-1,-1,-1,-1,-1,-1,-1,-1,-1,-1,-1,-1,-1,-1,-1,-1,-1,-1,-1,-1,-1,-1,-1,-1,-1,-1,-1,-1,-1,-1,-1,-1,-1,-1,-1,-1,-1,-1,-1,-1,-1],"loss_changes":[4.6667807E-5,1.2769299E-5,1.9494306E-5,7.578845E-6,5.2719406E-6,6.4815667E-6,9.309999E-6,7.3375472E-6,4.5409906E-6,1.9746494E-6,2.9471985E-6,2.5731579E-6,1.2787465E-5,7.878451E-6,1.3793506E-5,5.8120468E-6,7.443212E-6,7.731622E-6,2.0298548E-6,1.8279079E-6,2.1150186E-6,1.8275389E-6,3.0405909E-6,2.791262E-6,1.3838119E-6,1.3314955E-5,1.0733272E-5,4.254871E-6,8.333489E-6,5.4607724E-5,7.745567E-6,4.0972996E-6,4.2502047E-6,4.0707578E-6,4.3725195E-6,4.096297E-6,1.8535431E-5,1.9459403E-6,1.4605891E-6,1.9363742E-6,3.0271626E-6,1.0149884E-6,3.8536823E-6,1.214682E-6,0E0,2.106541E-6,1.6589838E-6,1.7397057E-6,2.047104E-6,2.0128464E-6,0E0,2.784519E-6,3.0687697E-6,1.2161718E-5,4.044456E-5,2.5623856E-6,0E0,5.0688886E-6,7.453453E-6,0E0,2.0568737E-6,4.069643E-6,3.3568303E-6,0E0,0E0,0E0,0E0,0E0,0E0,0E0,0E0,0E0,0E0,0E0,0E0,0E0,0E0,0E0,0E0,0E0,0E0,0E0,0E0,0E0,0E0,0E0,0E0,0E0,0E0,0E0,0E0,0E0,0E0,0E0,0E0,0E0,0E0,0E0,0E0,0E0,0E0,0E0,0E0,0E0,0E0,0E0,0E0,0E0,0E0,0E0,0E0,0E0,0E0,0E0,0E0,0E0,0E0,0E0,0E0],"parents":[2147483647,0,0,1,1,2,2,3,3,4,4,5,5,6,6,7,7,8,8,9,9,10,10,11,11,12,12,13,13,14,14,15,15,16,16,17,17,18,18,19,19,20,20,21,21,22,22,23,23,24,24,25,25,26,26,27,27,28,28,29,29,30,30,31,31,32,32,33,33,34,34,35,35,36,36,37,37,38,38,39,39,40,40,41,41,42,42,43,43,45,45,46,46,47,47,48,48,49,49,51,51,52,52,53,53,54,54,55,55,57,57,58,58,60,60,61,61,62,62],"right_children":[2,4,6,8,10,12,14,16,18,20,22,24,26,28,30,32,34,36,38,40,42,44,46,48,50,52,54,56,58,60,62,64,66,68,70,72,74,76,78,80,82,84,86,88,-1,90,92,94,96,98,-1,100,102,104,106,108,-1,110,112,-1,114,116,118,-1,-1,-1,-1,-1,-1,-1,-1,-1,-1,-1,-1,-1,-1,-1,-1,-1,-1,-1,-1,-1,-1,-1,-1,-1,-1,-1,-1,-1,-1,-1,-1,-1,-1,-1,-1,-1,-1,-1,-1,-1,-1,-1,-1,-1,-1,-1,-1,-1,-1,-1,-1,-1,-1,-1,-1],"split_conditions":[6.900211E-11,1.5E1,1.9835896E-4,6.799698E-4,2.9900434E-4,1.20944E0,7.799864E-4,1E0,1.9E1,8.118692E-5,7.851226E-4,7.4870486E-6,7.4870486E-6,3E0,9.9790506E-2,2.9993057E-4,1.23348E0,1.24548E0,1.24661E0,2.5644267E-5,1.0999441E-3,1.2814434E-3,1.20825E0,1.20749E0,2.9993057E-4,1.21383E0,1E0,7.8081404E-4,4.9E1,2.8966903E-4,1.81E2,4.160144E-6,4E0,1.6E1,2E0,1.97E2,2.3626893E-4,1.5000105E-3,5.76908E-4,2.8266592E-4,6.010879E-8,4.8804856E-4,1.3325106E-1,1E1,4.771028E-5,1.5000105E-3,6E0,4.8038835E-4,2.1E1,3.420651E-4,1.7306129E-6,2.1E1,7.851226E-4,9.175971E-5,4.1042898E-2,1.6678001E-5,-1.6487385E-5,1.4758593E-1,5.084694E-8,8.7819196E-4,1.21949E0,3.0209985E-1,1.5000105E-3,2.845089E-7,-1.2563323E-6,-1.2951926E-8,2.067203E-6,4.562518E-7,-9.650764E-7,5.713048E-7,2.4670474E-6,8.930623E-6,8.598003E-5,-3.6036806E-6,1.618778E-4,2.915604E-6,1.3151329E-5,-8.6708105E-6,-6.0772734E-5,-5.588113E-7,-4.4122944E-6,-3.8134402E-8,-7.330106E-7,-1.8892823E-6,-5.2858695E-6,-3.0788226E-5,1.1962155E-5,-2.7193188E-5,-7.644666E-6,-4.547085E-5,5.920421E-5,-9.4033596E-5,-4.0941293E-5,-3.311932E-8,-5.019114E-6,1.2087515E-6,5.7452203E-6,-1.689214E-6,-7.6165757E-6,2.0040327E-6,8.250606E-6,8.687827E-6,-3.5971218E-5,7.515104E-7,3.070978E-6,4.36742E-4,-9.753256E-7,8.068244E-6,-3.887091E-6,1.755953E-5,3.6576741E-6,2.4179812E-4,1.4374082E-5,3.3314266E-6,9.600279E-5,-7.2601883E-6,1.2571364E-5,2.8143319E-5,7.226036E-5],"split_indices":[24,20,25,13,25,10,13,32,30,28,26,16,16,30,29,15,10,6,6,26,13,27,5,10,13,5,34,27,4,26,19,16,31,30,31,19,26,13,26,27,16,27,29,19,0,15,19,27,30,27,0,18,26,25,29,16,0,29,16,0,7,29,13,0,0,0,0,0,0,0,0,0,0,0,0,0,0,0,0,0,0,0,0,0,0,0,0,0,0,0,0,0,0,0,0,0,0,0,0,0,0,0,0,0,0,0,0,0,0,0,0,0,0,0,0,0,0,0,0],"split_type":[0,0,0,0,0,0,0,0,0,0,0,0,0,0,0,0,0,0,0,0,0,0,0,0,0,0,0,0,0,0,0,0,0,0,0,0,0,0,0,0,0,0,0,0,0,0,0,0,0,0,0,0,0,0,0,0,0,0,0,0,0,0,0,0,0,0,0,0,0,0,0,0,0,0,0,0,0,0,0,0,0,0,0,0,0,0,0,0,0,0,0,0,0,0,0,0,0,0,0,0,0,0,0,0,0,0,0,0,0,0,0,0,0,0,0,0,0,0,0],"sum_hessian":[1.263168E7,1.0545065E7,2.086615E6,3.210014E6,7.335051E6,1.894902E6,1.91713E5,3.164922E6,4.5092E4,7.333089E6,1.962E3,4.8978E5,1.405122E6,1.84528E5,7.185E3,1.341017E6,1.823905E6,4.746E3,4.0346E4,7.263837E6,6.9252E4,1.614E3,3.48E2,4.29166E5,6.0614E4,1.7729E5,1.227832E6,1.1287E4,1.73241E5,9.6E1,7.089E3,8.05448E5,5.35569E5,1.378066E6,4.45839E5,4.495E3,2.51E2,3.958E4,7.66E2,4.637964E6,2.625873E6,6.7229E4,2.023E3,1.568E3,4.6E1,6.9E1,2.79E2,3.15934E5,1.13232E5,5.1888E4,8.726E3,1.37318E5,3.9972E4,1.012827E6,2.15005E5,9.294E3,1.993E3,1.66775E5,6.466E3,7E0,8.9E1,5.825E3,1.264E3,2.10148E5,5.953E5,4.23873E5,1.11696E5,1.163215E6,2.14851E5,1.93365E5,2.52474E5,4.433E3,6.2E1,1.49E2,1.02E2,3.7832E4,1.748E3,7.15E2,5.1E1,4.626199E6,1.1765E4,1.805057E6,8.20816E5,5.8061E4,9.168E3,2.11E2,1.812E3,3.76E2,1.192E3,2.9E1,4E1,7.2E1,2.07E2,3.09506E5,6.428E3,1.03432E5,9.8E3,4.6083E4,5.805E3,1.30564E5,6.754E3,3.9834E4,1.38E2,7.30899E5,2.81928E5,1.8E1,2.14987E5,2.077E3,7.217E3,2.394E3,1.64381E5,1.2E1,6.454E3,3.6E1,5.3E1,1.163E3,4.662E3,1.083E3,1.81E2],"tree_param":{"num_deleted":"0","num_feature":"35","num_nodes":"119","size_leaf_vector":"1"}},{"base_weights":[5.710241E-10,-4.6308338E-7,4.7284825E-6,-1.0949026E-6,8.651231E-7,2.2784581E-5,4.0431296E-6,-1.1304237E-6,5.8021387E-6,-1.6042035E-5,1.0117461E-6,1.9475954E-5,1.0938017E-4,1.6051436E-6,1.0082747E-5,-1.8142902E-6,-8.606837E-7,3.6745718E-7,1.579023E-5,-1.3846398E-5,-5.4092194E-5,6.222346E-5,9.682244E-7,1.6093327E-5,3.8319125E-5,3.139396E-4,8.2318766E-5,3.5827416E-6,-3.4143222E-6,2.4605629E-6,1.7142465E-5,-2.9208607E-6,-1.037283E-6,-8.696849E-7,2.7705057E-5,1.8666207E-6,1.0943971E-5,-2.6395956E-5,-9.274294E-6,4.6942823E-6,-7.4373296E-5,1.0456847E-5,2.4975586E-4,3.2145085E-6,-1.1063865E-7,3.579153E-6,3.0192983E-5,1.3716354E-5,1.3762589E-5,6.903515E-4,5.5301974E-5,1.7434884E-4,5.0048628E-5,-1.5703348E-6,4.93781E-6,-6.847921E-6,8.462515E-6,3.3909514E-6,-3.6884423E-5,2.63196E-5,6.042073E-6,-6.313353E-7,-1.771905E-6,-4.759354E-7,2.0160444E-7,-1.7584827E-7,-4.817507E-7,7.151721E-6,7.464543E-5,-9.085494E-6,1.3295247E-5,-4.168074E-6,5.828559E-7,-8.06861E-6,4.7776663E-5,-1.7645867E-5,-4.2000724E-5,3.023071E-5,-2.1980502E-6,1.4326886E-4,1.5780188E-5,2.7207352E-7,4.552047E-6,-4.751644E-7,1.0045725E-6,8.966952E-6,2.3876318E-4,1.6664935E-5,-3.83898E-6,2.881859E-5,4.169348E-4,-2.164537E-5,4.4074914E-5,1.1605485E-4,3.697285E-5,-3.6662316E-6,3.1213847E-5,-1.5856827E-7,-3.854831E-6,1.8031093E-6,-7.8908766E-7,-5.882032E-6,-1.6040876E-6,2.0101688E-6,2.1398055E-5,9.98142E-7,2.0169232E-4,-3.5724456E-6,-3.364379E-5,6.453529E-6,3.09593E-5,5.7457414E-6,4.6745845E-7],"categories":[],"categories_nodes":[],"categories_segments":[],"categories_sizes":[],"default_left":[0,0,0,0,0,0,0,0,0,0,0,0,0,0,0,0,0,0,0,0,0,0,0,0,0,0,0,0,0,0,0,0,0,0,0,0,0,0,0,0,0,0,0,0,0,0,0,0,0,0,0,0,0,0,0,0,0,0,0,0,0,0,0,0,0,0,0,0,0,0,0,0,0,0,0,0,0,0,0,0,0,0,0,0,0,0,0,0,0,0,0,0,0,0,0,0,0,0,0,0,0,0,0,0,0,0,0,0,0,0,0,0,0],"id":12,"left_children":[1,3,5,7,9,11,13,15,17,19,21,23,25,27,29,31,33,-1,35,37,39,41,43,45,47,49,51,53,55,57,59,61,63,65,67,-1,-1,69,71,73,75,77,79,81,83,-1,85,-1,87,89,91,93,95,97,99,101,103,105,107,109,111,-1,-1,-1,-1,-1,-1,-1,-1,-1,-1,-1,-1,-1,-1,-1,-1,-1,-1,-1,-1,-1,-1,-1,-1,-1,-1,-1,-1,-1,-1,-1,-1,-1,-1,-1,-1,-1,-1,-1,-1,-1,-1,-1,-1,-1,-1,-1,-1,-1,-1,-1,-1],"loss_changes":[2.7690126E-5,9.65363E-6,1.3960231E-5,1.9097915E-6,9.192568E-6,1.1817654E-5,1.6003636E-5,1.4306106E-6,1.8260613E-6,2.6628113E-6,9.793792E-6,2.5321979E-6,8.377299E-6,7.686199E-6,1.6819067E-5,1.8861865E-6,1.4300845E-6,0E0,2.484593E-6,1.7293542E-6,2.0736788E-6,2.5354464E-5,8.902989E-6,1.9771105E-6,1.0985268E-6,1.7193528E-5,3.9767756E-6,3.8787007E-6,8.924662E-6,5.501841E-6,1.6530044E-5,2.2056838E-6,1.2097638E-6,1.1604516E-6,1.4917138E-6,0E0,0E0,2.214868E-6,1.1449359E-6,2.1867763E-6,1.3116314E-6,3.2899964E-6,2.535092E-5,3.2893804E-5,1.264767E-5,0E0,1.7586112E-6,0E0,1.556698E-6,2.9794348E-5,1.2483144E-6,3.731624E-6,3.3468539E-6,1.3589711E-6,3.570056E-6,3.2510288E-6,5.4358206E-6,6.2648824E-6,6.5251666E-6,3.283051E-5,4.317172E-6,0E0,0E0,0E0,0E0,0E0,0E0,0E0,0E0,0E0,0E0,0E0,0E0,0E0,0E0,0E0,0E0,0E0,0E0,0E0,0E0,0E0,0E0,0E0,0E0,0E0,0E0,0E0,0E0,0E0,0E0,0E0,0E0,0E0,0E0,0E0,0E0,0E0,0E0,0E0,0E0,0E0,0E0,0E0,0E0,0E0,0E0,0E0,0E0,0E0,0E0,0E0,0E0],"parents":[2147483647,0,0,1,1,2,2,3,3,4,4,5,5,6,6,7,7,8,8,9,9,10,10,11,11,12,12,13,13,14,14,15,15,16,16,18,18,19,19,20,20,21,21,22,22,23,23,24,24,25,25,26,26,27,27,28,28,29,29,30,30,31,31,32,32,33,33,34,34,37,37,38,38,39,39,40,40,41,41,42,42,43,43,44,44,46,46,48,48,49,49,50,50,51,51,52,52,53,53,54,54,55,55,56,56,57,57,58,58,59,59,60,60],"right_children":[2,4,6,8,10,12,14,16,18,20,22,24,26,28,30,32,34,-1,36,38,40,42,44,46,48,50,52,54,56,58,60,62,64,66,68,-1,-1,70,72,74,76,78,80,82,84,-1,86,-1,88,90,92,94,96,98,100,102,104,106,108,110,112,-1,-1,-1,-1,-1,-1,-1,-1,-1,-1,-1,-1,-1,-1,-1,-1,-1,-1,-1,-1,-1,-1,-1,-1,-1,-1,-1,-1,-1,-1,-1,-1,-1,-1,-1,-1,-1,-1,-1,-1,-1,-1,-1,-1,-1,-1,-1,-1,-1,-1,-1,-1],"split_conditions":[6E0,1.7910957E-4,4.160144E-6,6.3569125E-5,1.20178E0,6.466688E-4,2.8713674E-5,6E0,9E0,5.123193E-4,1.20113E0,1.21392E0,7.8081404E-4,1E0,1.2E1,2.606551E-4,1.24811E0,3.6745718E-7,5.3950946E-4,1.20104E0,1.20093E0,1.20243E0,6.010879E-8,1E1,6.508749E-4,1.20986E0,1.20759E0,1E0,1.23758E0,1.2438078E-4,1.9E1,7.4870486E-6,7.297502E-5,1.22528E0,1.865E3,1.8666207E-6,1.0943971E-5,3.7372607E-4,4E0,1.20089E0,4.2953584E-4,1.9E1,1.20095E0,1.21202E0,1.23462E0,3.579153E-6,1.74E2,1.3716354E-5,2.3002227E-4,1.20839E0,1.21274E0,9E0,9.3E1,2.526009E-4,1.6E1,2.3304191E-1,7.851226E-4,1.56E2,1.0609748E-3,4.1007996E-4,1.22513E0,-6.313353E-7,-1.771905E-6,-4.759354E-7,2.0160444E-7,-1.7584827E-7,-4.817507E-7,7.151721E-6,7.464543E-5,-9.085494E-6,1.3295247E-5,-4.168074E-6,5.828559E-7,-8.06861E-6,4.7776663E-5,-1.7645867E-5,-4.2000724E-5,3.023071E-5,-2.1980502E-6,1.4326886E-4,1.5780188E-5,2.7207352E-7,4.552047E-6,-4.751644E-7,1.0045725E-6,8.966952E-6,2.3876318E-4,1.6664935E-5,-3.83898E-6,2.881859E-5,4.169348E-4,-2.164537E-5,4.4074914E-5,1.1605485E-4,3.697285E-5,-3.6662316E-6,3.1213847E-5,-1.5856827E-7,-3.854831E-6,1.8031093E-6,-7.8908766E-7,-5.882032E-6,-1.6040876E-6,2.0101688E-6,2.1398055E-5,9.98142E-7,2.0169232E-4,-3.5724456E-6,-3.364379E-5,6.453529E-6,3.09593E-5,5.7457414E-6,4.6745845E-7],"split_indices":[4,27,16,16,12,26,16,30,19,27,6,8,27,34,30,15,7,0,15,7,5,11,16,4,27,1,5,32,1,16,30,16,27,3,20,0,0,27,31,5,26,30,7,0,7,0,18,0,15,0,1,30,19,26,30,29,26,4,27,13,6,0,0,0,0,0,0,0,0,0,0,0,0,0,0,0,0,0,0,0,0,0,0,0,0,0,0,0,0,0,0,0,0,0,0,0,0,0,0,0,0,0,0,0,0,0,0,0,0,0,0,0,0],"split_type":[0,0,0,0,0,0,0,0,0,0,0,0,0,0,0,0,0,0,0,0,0,0,0,0,0,0,0,0,0,0,0,0,0,0,0,0,0,0,0,0,0,0,0,0,0,0,0,0,0,0,0,0,0,0,0,0,0,0,0,0,0,0,0,0,0,0,0,0,0,0,0,0,0,0,0,0,0,0,0,0,0,0,0,0,0,0,0,0,0,0,0,0,0,0,0,0,0,0,0,0,0,0,0,0,0,0,0,0,0,0,0,0,0],"sum_hessian":[1.263168E7,1.1503556E7,1.128124E6,7.795356E6,3.7082E6,4.1253E4,1.086871E6,7.755415E6,3.9941E4,3.1881E4,3.676319E6,3.9736E4,1.517E3,7.7431E5,3.12561E5,2.193718E6,5.561697E6,2.739E4,1.2551E4,3.0143E4,1.738E3,2.611E3,3.673708E6,3.369E4,6.046E3,1.76E2,1.341E3,5.55465E5,2.18845E5,1.50294E5,1.62267E5,9.04944E5,1.288774E6,5.559946E6,1.751E3,8.583E3,3.968E3,8.048E3,2.2095E4,4.46E2,1.292E3,2.047E3,5.64E2,1.191955E6,2.481753E6,2.6012E4,7.678E3,4.645E3,1.401E3,7.1E1,1.05E2,3.47E2,9.94E2,1.15654E5,4.39811E5,1.69766E5,4.9079E4,1.46823E5,3.471E3,8.8828E4,7.3439E4,7.1062E5,1.94324E5,9.75396E5,3.13378E5,4.013985E6,1.545961E6,1.722E3,2.9E1,7.629E3,4.19E2,1.565E4,6.445E3,3.71E2,7.5E1,1.046E3,2.46E2,3.36E2,1.711E3,2.61E2,3.03E2,9.99159E5,1.92796E5,1.740495E6,7.41258E5,7.676E3,2E0,5.44E2,8.57E2,3.9E1,3.2E1,4.4E1,6.1E1,6.6E1,2.81E2,4.62E2,5.32E2,1.05876E5,9.778E3,3.85218E5,5.4593E4,1.7868E4,1.51898E5,4.7742E4,1.337E3,1.4681E5,1.3E1,2.607E3,8.64E2,8.3601E4,5.227E3,1.8715E4,5.4724E4],"tree_param":{"num_deleted":"0","num_feature":"35","num_nodes":"113","size_leaf_vector":"1"}},{"base_weights":[5.1118426E-10,-5.900268E-7,2.222989E-6,-5.7702107E-7,-6.0390565E-5,1.1881163E-5,1.6806987E-6,-5.784755E-7,9.657892E-5,-3.6319994E-5,-1.244903E-4,1.0464683E-5,5.3195385E-5,1.2031752E-6,1.1396288E-5,-1.0473E-6,-9.021519E-9,-1.00646525E-4,-7.2258317E-6,5.7144294E-5,-1.3583628E-4,9.688097E-6,6.557139E-5,9.169421E-5,1.807593E-5,-1.626141E-6,2.295899E-6,7.1185423E-6,3.6515754E-5,-1.0205744E-6,-4.0773437E-5,-8.649084E-8,2.1804186E-5,-3.4718378E-5,5.5656412E-5,-7.1797025E-5,-1.014256E-4,1.1638941E-5,-1.2258665E-5,-8.733942E-6,9.872836E-5,4.498401E-5,1.824636E-4,1.0393387E-5,1.2846524E-4,-1.8866033E-6,6.780409E-5,-1.5788224E-6,3.9632814E-6,5.2080377E-6,2.2547718E-5,2.1288883E-5,7.401027E-5,-3.1658152E-7,1.5413997E-6,4.6604106E-5,-1.48505505E-5,3.4351405E-7,-3.8268266E-7,2.5064262E-5,3.5682017E-6,-5.6058267E-5,-4.4171443E-6,2.623577E-6,8.928372E-6,2.8160475E-6,-6.1437922E-6,3.394739E-5,-8.172401E-6,1.1849035E-5,1.0121779E-4,4.1010175E-4,4.052748E-5,1.02314596E-4,2.549808E-6,1.179354E-4,1.3493828E-5,-4.3496516E-7,-1.23243235E-5,8.92106E-5,3.6968106E-6,-1.2223607E-6,8.588029E-7,1.5372095E-7,2.0571856E-6,-2.0021075E-7,2.2743804E-6,3.9172123E-6,3.0655894E-5,6.299242E-6,2.1789625E-4,-2.4566507E-6,3.2340813E-5],"categories":[],"categories_nodes":[],"categories_segments":[],"categories_sizes":[],"default_left":[0,0,0,0,0,0,0,0,0,0,0,0,0,0,0,0,0,0,0,0,0,0,0,0,0,0,0,0,0,0,0,0,0,0,0,0,0,0,0,0,0,0,0,0,0,0,0,0,0,0,0,0,0,0,0,0,0,0,0,0,0,0,0,0,0,0,0,0,0,0,0,0,0,0,0,0,0,0,0,0,0,0,0,0,0,0,0,0,0,0,0,0,0],"id":13,"left_children":[1,3,5,7,9,11,13,15,-1,17,19,21,23,25,27,29,31,33,-1,-1,35,37,39,41,43,45,47,49,51,53,55,57,59,-1,-1,-1,61,63,65,-1,67,69,71,73,75,77,79,81,83,85,87,89,91,-1,-1,-1,-1,-1,-1,-1,-1,-1,-1,-1,-1,-1,-1,-1,-1,-1,-1,-1,-1,-1,-1,-1,-1,-1,-1,-1,-1,-1,-1,-1,-1,-1,-1,-1,-1,-1,-1,-1,-1],"loss_changes":[1.6578548E-5,7.761835E-6,1.3888749E-5,4.6804976E-6,3.343609E-6,8.249523E-6,1.1648648E-5,2.6637836E-6,0E0,1.2401915E-6,2.1414808E-6,5.832557E-6,6.316509E-6,7.398895E-6,1.2639095E-5,5.809978E-6,7.6133542E-6,1.1090547E-6,0E0,0E0,2.0126545E-6,5.7549514E-6,5.9489957E-6,9.442432E-6,2.0721975E-6,1.2057891E-5,1.1153728E-5,2.9626676E-6,9.770363E-6,1.1685847E-6,6.305463E-6,6.5744553E-6,9.754946E-6,0E0,0E0,0E0,3.1898344E-6,6.4729593E-6,1.952726E-6,0E0,2.5533054E-6,2.3501204E-6,4.2293723E-5,1.4293807E-6,3.4953832E-6,1.1370326E-5,3.1735854E-5,5.757452E-6,1.2054208E-5,1.2470873E-6,8.36837E-6,2.48593E-6,1.3731094E-5,0E0,0E0,0E0,0E0,0E0,0E0,0E0,0E0,0E0,0E0,0E0,0E0,0E0,0E0,0E0,0E0,0E0,0E0,0E0,0E0,0E0,0E0,0E0,0E0,0E0,0E0,0E0,0E0,0E0,0E0,0E0,0E0,0E0,0E0,0E0,0E0,0E0,0E0,0E0,0E0],"parents":[2147483647,0,0,1,1,2,2,3,3,4,4,5,5,6,6,7,7,9,9,10,10,11,11,12,12,13,13,14,14,15,15,16,16,17,17,20,20,21,21,22,22,23,23,24,24,25,25,26,26,27,27,28,28,29,29,30,30,31,31,32,32,36,36,37,37,38,38,40,40,41,41,42,42,43,43,44,44,45,45,46,46,47,47,48,48,49,49,50,50,51,51,52,52],"right_children":[2,4,6,8,10,12,14,16,-1,18,20,22,24,26,28,30,32,34,-1,-1,36,38,40,42,44,46,48,50,52,54,56,58,60,-1,-1,-1,62,64,66,-1,68,70,72,74,76,78,80,82,84,86,88,90,92,-1,-1,-1,-1,-1,-1,-1,-1,-1,-1,-1,-1,-1,-1,-1,-1,-1,-1,-1,-1,-1,-1,-1,-1,-1,-1,-1,-1,-1,-1,-1,-1,-1,-1,-1,-1,-1,-1,-1,-1],"split_conditions":[1.3E1,3.1523412E-4,7.4870486E-6,3.000021E-3,7.851226E-4,8.2E1,1E0,1.5394468E-8,9.657892E-5,4E0,1.6750874E-1,5.5992603E-4,3E0,1.22672E0,7.5E1,6.924864E-4,1.0999441E-3,3.000021E-3,-7.2258317E-6,5.7144294E-5,6E0,6.7091594E-4,1.20687E0,6.466688E-4,3.0994415E-4,8.80003E-4,1E0,4.767712E-5,3.7833015E-5,1.4E1,4E0,6.010879E-8,1E0,-3.4718378E-5,5.5656412E-5,-7.1797025E-5,4.9843228E-1,1.21382E0,3.6554658E-4,-8.733942E-6,1.4999807E-3,3.2E1,2.3808406E-4,1.4999906E-4,3.6001205E-4,1.0609748E-3,9.105643E-2,3.4999847E-4,2.0575055E-5,7E0,1E0,2.02E2,8E0,-3.1658152E-7,1.5413997E-6,4.6604106E-5,-1.48505505E-5,3.4351405E-7,-3.8268266E-7,2.5064262E-5,3.5682017E-6,-5.6058267E-5,-4.4171443E-6,2.623577E-6,8.928372E-6,2.8160475E-6,-6.1437922E-6,3.394739E-5,-8.172401E-6,1.1849035E-5,1.0121779E-4,4.1010175E-4,4.052748E-5,1.02314596E-4,2.549808E-6,1.179354E-4,1.3493828E-5,-4.3496516E-7,-1.23243235E-5,8.92106E-5,3.6968106E-6,-1.2223607E-6,8.588029E-7,1.5372095E-7,2.0571856E-6,-2.0021075E-7,2.2743804E-6,3.9172123E-6,3.0655894E-5,6.299242E-6,2.1789625E-4,-2.4566507E-6,3.2340813E-5],"split_indices":[18,28,16,13,26,19,33,16,0,19,29,15,31,0,18,27,15,13,0,0,19,27,6,26,13,15,32,16,16,19,30,16,31,0,0,0,29,7,26,0,14,4,25,15,13,27,29,15,16,30,32,4,30,0,0,0,0,0,0,0,0,0,0,0,0,0,0,0,0,0,0,0,0,0,0,0,0,0,0,0,0,0,0,0,0,0,0,0,0,0,0,0,0],"split_type":[0,0,0,0,0,0,0,0,0,0,0,0,0,0,0,0,0,0,0,0,0,0,0,0,0,0,0,0,0,0,0,0,0,0,0,0,0,0,0,0,0,0,0,0,0,0,0,0,0,0,0,0,0,0,0,0,0,0,0,0,0,0,0,0,0,0,0,0,0,0,0,0,0,0,0,0,0,0,0,0,0,0,0,0,0,0,0,0,0,0,0,0,0],